#include "cell0_weights.h"

data_t cells_0_ops_by_node_0_0_op_1_weight[8][1][5][5] = {
0.0163919106, -0.0061749495, -0.0344012454, 0.0426939391, 0.0511286631, 0.1212332547, 0.0948487893, -0.0518683158, 0.0314274244, 0.0640595332, 0.6917984486, -0.1791260689, 0.2567800879, 0.0136770932, -0.4852846861, 0.1151806787, 0.1219319031, 0.0019901656, 0.0153490668, 0.0441208147, 0.0181491096, 0.0767482296, -0.0076768785, -0.0397639610, 0.0246507544, -0.0471702814, -0.0029866402, 0.0067306403, 0.0513171516, 0.0326130837, -0.0568184070, 0.0161617845, -0.0479578301, -0.0916849375, -0.0581291690, -0.3357498646, -0.0694125742, 0.1330571771, -0.4660826921, 0.0520777777, -0.0645016953, -0.0504312366, 0.0053352150, -0.0022366864, 0.0176163111, -0.0332617685, -0.0453366674, -0.0600804165, -0.0034592268, 0.0022621062, 0.0482138507, -0.0638210624, 0.0038716590, 0.0551273897, 0.0228912830, -0.0142291207, 0.0038100355, 0.0815563351, 0.0292555802, -0.0020506482, 0.0368232578, 0.1659211218, 0.5272297859, -0.4684757590, 0.1232123151, -0.0562513471, 0.0204549618, 0.1938388348, 0.0141173396, 0.0025835338, -0.0075335852, 0.0499506816, 0.0377075113, 0.0217342041, 0.0086353049, -0.0301738493, -0.0023879963, 0.0127406940, -0.0173148960, -0.0124006737, 0.0277217980, -0.0366723835, -0.0292583052, 0.0536262691, -0.0171829946, 0.0412845388, -1.0514856577, -0.0210330952, 0.2001317888, -0.0613785796, 0.0187629312, -0.0129871331, -0.0210781563, -0.0019115550, -0.0568819456, -0.0052082087, -0.0162234772, -0.0075410493, -0.0113236653, 0.0104027046, -0.0873709321, -0.0247384422, -0.0102550285, -0.0338791572, -0.0441765264, 0.0407441817, -0.0617956668, -0.0828937367, -0.0202662386, -0.0118920989, 0.2989485562, 0.7076874375, -0.6500383019, -0.0135488613, 0.0609117821, -0.0153731108, -0.0666794851, -0.0169777758, -0.0330528840, 0.0027008436, 0.0000386702, -0.0596246012, -0.0296399500, 0.0003724930, 0.0070759947, 0.0000927954, 0.0000161481, 0.0000303487, -0.0000359991, -0.0000294265, 0.0000690616, 0.0001120613, 0.0001047667, 0.0001504438, 0.0001134342, 0.0002885256, 0.0003224062, 0.0002292339, 0.0002912473, 0.0003287976, 0.0002189897, 0.0002094176, 0.0001913923, 0.0002718022, 0.0001632738, 0.0000507569, 0.0000267405, -0.0000329179, 0.0000642180, -0.0000211511, -0.0426829532, -0.0484271683, 0.0396408029, -0.0168206673, -0.0955470577, -0.0447683930, -0.0880998522, -0.1357454509, -0.0359183922, -0.1062280312, -0.1023852453, -0.4627251029, 0.1134852692, -0.4795784354, -0.2257847786, -0.0272541270, -0.0383918025, -0.0866183713, -0.1319676787, -0.0651360005, -0.0110641513, -0.1057321057, -0.0367154852, 0.0057397638, -0.0124643035, 0.0684409738, -0.0013799557, 0.0342430696, 0.0039061671, 0.0535025261, -0.0920678675, -0.1007681563, 0.0950035527, 0.0848507732, 0.0948656276, 0.1265503019, -0.1327324808, 0.3895912170, 0.3633917570, 0.2433140129, -0.0299627092, -0.0480692014, 0.1548411995, 0.1438828111, 0.1336505860, -0.0292167738, -0.0086835567, 0.0009353083, 0.0467593782, 0.0739601701
};

data_t cells_0_ops_by_node_0_1_op_1_weight[8][1][5][5] = {
-0.0005478140, 0.0002732455, -0.0007400712, 0.0003658499, -0.0000604100, 0.0015028394, 0.0017024571, 0.0011797744, 0.0014023150, 0.0009548287, 0.0031302408, 0.0038827499, 0.0044715819, 0.0030087498, 0.0027962467, 0.0013308148, 0.0021513128, 0.0016595866, 0.0024483537, 0.0017544802, 0.0008070550, 0.0011278264, 0.0005463538, 0.0006992472, 0.0003326131, -0.2612173557, 0.0643831044, -0.0039158985, -0.0546365790, 0.3005445004, -0.3450157642, 0.2298629731, 0.0051133614, -0.1288574785, 0.2228596359, -0.0368107036, -0.1880992949, -0.0915969685, -0.2031616569, -0.3640406728, 0.4112627506, -0.3535229564, 0.1154848561, 0.2114486396, -0.4246352315, 0.4743709862, -0.2014200538, 0.2381238192, 0.0863078758, -0.3754437864, -0.1021106020, -0.1824085712, -0.0405563787, -0.0778416544, -0.0944373086, 0.0760636330, 0.1797874421, 0.1465119272, 0.0348399542, 0.1164338216, 0.2828547060, -0.1018476263, -0.2274658531, 0.5373234749, -0.0257437527, -0.1337133199, -0.1022237092, -0.0702295005, -0.1281769425, -0.0300055742, -0.0304472353, 0.1154357716, 0.0159974229, 0.1577305347, -0.0350544415, -0.0512854531, 0.1838559359, 0.0477038957, -0.0649031475, 0.0988348722, 0.1202695966, -0.0159108359, 0.2294521034, 0.2804548144, -0.0045863595, 0.1199643984, -0.2951440811, -0.4706877172, 0.0598495863, -0.2235197872, 0.1144005209, 0.1053722426, 0.0586028136, 0.0975785330, 0.1635272354, 0.0374183990, 0.1627921313, 0.0289266557, 0.1037220284, 0.1376866102, -0.0660263002, 0.1407613456, 0.0415964164, 0.0555536784, 0.1114956290, -0.0221540835, 0.0693109185, -0.0573213622, 0.0898239985, -0.0703068525, -0.0006734312, -0.6664527059, -0.2440585345, 0.3028689921, -0.4283671975, -0.0463651009, 0.0049876655, -0.0456906669, 0.0096732890, 0.0145651307, 0.1209839806, 0.0052832286, 0.1693537831, -0.0023673347, 0.0668274090, 0.1124529541, -0.0258780867, 0.0196684953, 0.0440096781, -0.0393012092, 0.0318690576, -0.1448157579, 0.1269088387, -0.2027394474, 0.0526689403, 0.5131632090, -0.8365110159, -0.3071002364, -0.1554254591, -0.8793742657, 0.0315605141, 0.0440643467, 0.1122614369, 0.0064081135, 0.0111560319, 0.0699610114, -0.0402001739, 0.1444640160, 0.0264754575, 0.0848057568, 0.0110799484, -0.0389270671, 0.0125596896, -0.0214582719, 0.0763579980, -0.0525405295, 0.1178289577, -0.1186202094, -0.0925817490, -0.0328857750, -0.0733230934, 0.3571503460, 0.0571275279, -1.1609743834, 0.1480593532, -0.0593591630, -0.0233920589, 0.0047364826, -0.0672330409, -0.0363084972, -0.0254100692, -0.0453330129, -0.0630170703, 0.0859563947, -0.1077077240, -0.0309020076, -0.2320049405, -0.0480929948, 0.0750440806, -0.2180780321, 0.4185932577, 0.2441521138, -0.1400205493, -0.0272185504, -0.0300291535, -0.5481420755, 0.1883967519, 0.6607647538, 0.4261309505, 0.8993299007, -0.0713492557, 0.0022586386, -0.1140043139, -0.1179056391, -0.0939662755, 0.0201027561, 0.0586696789, 0.0547971427, 0.0158190560, -0.0190739129
};

data_t cells_0_ops_by_node_0_1_op_5_weight[8][1][5][5] = {
-0.0625514314, -0.0464039296, 0.0281228013, 0.0363851376, 0.0361337997, -0.0685453862, -0.1427882612, -0.0246100817, -0.0298347082, -0.0230651479, -0.2456764430, -0.0433238968, -0.1554030180, -0.6585565805, -0.3854852319, -0.0396106578, -0.0085759778, 0.0012339228, -0.0296361595, 0.0160256159, 0.0111534093, 0.0333985761, 0.0032260271, -0.0315335765, -0.0388825648, -0.0877739191, -0.0818426386, -0.0014927716, -0.0792229250, -0.0343791917, -0.1546519548, -0.0744083151, -0.0710559934, -0.0509909913, -0.0900058672, 0.0321206376, -0.2130517066, -0.2982933521, 0.2506181896, -0.4412194490, -0.0588565469, -0.1388700902, 0.0063557476, -0.0984341949, 0.0126240561, -0.0121992184, -0.0880640298, 0.0269617438, -0.0872681066, 0.0418650396, -0.0696557835, -0.0459181815, 0.0587344803, -0.0091441795, 0.0519486889, 0.0321205705, 0.0271552727, 0.0624710172, 0.0556725673, 0.0728042796, 0.1169581860, 0.1182730943, 0.5343216658, 0.3132177889, -0.0173826963, 0.1733111590, 0.0475270189, 0.1213560700, 0.1568529755, 0.0642021075, 0.0077270628, 0.0645292550, 0.0928592682, 0.0291870851, 0.0250929035, 0.0662218705, -0.0409120619, 0.1026411504, 0.0156870522, 0.0025729041, -0.1045113355, 0.0282166153, 0.0288525522, 0.0318364464, 0.0891934708, 0.1993876696, 0.2314436436, 0.2345563620, 0.2768944800, 0.4333407283, 0.1686384827, 0.1926458329, 0.0502649844, 0.0649466142, 0.1596409827, -0.0188000482, 0.0730141848, -0.0702881068, -0.0547427684, -0.0240382012, 0.0276995525, 0.0215625614, 0.0007203453, 0.0112978742, 0.0447756425, 0.1040071920, 0.1074565649, 0.0388257541, -0.0245187413, 0.0491266102, 0.1806636155, -0.5275014639, -0.4026906192, 0.9448428750, -0.5847882628, 0.0270074289, -0.0191964004, 0.0548871085, 0.0857391357, 0.0150171043, -0.0341488980, 0.0106995152, 0.0465850383, 0.0203253347, 0.0069087879, -0.0008079092, -0.0006609994, -0.0003683396, -0.0006560093, -0.0005908012, 0.0008834578, 0.0000953641, 0.0003280442, 0.0001381269, 0.0002807125, 0.0049313093, 0.0022279685, 0.0015791862, 0.0013535710, 0.0038213949, 0.0013540839, 0.0006212052, 0.0012433105, 0.0004942894, 0.0013220679, -0.0003322010, -0.0002293587, 0.0002369646, -0.0003219518, -0.0000996793, 0.0142911216, -0.0390354358, 0.0035619803, 0.0063059097, -0.0451538973, 0.0135725196, -0.1254099607, -0.1018691063, -0.1736287922, -0.0374420844, -0.1901970357, -0.3149512410, -0.2222478390, -0.3208436966, -0.3225871623, -0.2055252045, -0.3240694106, -0.2859383523, -0.2309422195, -0.2481757551, -0.0372227617, -0.0726996884, -0.0878820121, -0.1190083846, -0.0443290919, -0.0499606766, 0.0549758747, -0.1469824761, 0.0324449912, -0.1225047931, -0.1232592613, 0.1039128825, -0.0376995131, -0.1164610907, 0.0152369430, -0.2496546209, -0.0107910708, -0.0793985501, -0.4011140764, -0.0538218468, -0.2149964273, 0.0374154150, -0.1148080975, -0.3882500529, -0.1599402279, -0.0057253363, 0.0224200897, -0.0713550746, -0.0030688546, -0.0430911146
};

data_t cells_0_ops_by_node_1_0_bn_bias[8] = {
-0.3022147715, -0.0535161272, -0.3709276021, 0.0421289280, -0.1198714525, -0.2347225100, -0.3099204600, -0.0111208661
};

data_t cells_0_ops_by_node_1_0_bn_running_mean[8] = {
-0.3250230849, -0.1611981243, -0.0072139241, 0.1196910590, -0.3384796679, -0.1094309241, -0.3362508714, -0.4237568378
};

data_t cells_0_ops_by_node_1_0_bn_running_var[8] = {
0.1026991457, 0.0166137330, 0.0391836055, 0.0224395543, 0.1168356612, 0.0285931025, 0.1097933948, 0.0816509873
};

data_t cells_0_ops_by_node_1_0_bn_weight[8] = {
1.3980450630, 0.1688812375, 0.3002094626, 0.4612611830, 0.8193325996, 0.4659648538, 0.7522243261, 0.5139895082
};

data_t cells_0_ops_by_node_1_0_conv1_weight[4][8][1][1] = {
-0.0262972098, -0.3005093336, 0.0173088424, -0.7036420703, -0.3725125790, 0.0116369044, 0.3390427530, -0.0174369980, -0.1087776646, -0.1489305645, -0.5655269027, -0.0218833853, 0.0358214676, -0.0003439832, -0.1617326289, -0.1694106460, -0.4182259738, 0.3408988714, -0.0197552405, -0.0723885298, 0.1380206347, 0.0015395954, 0.2401469350, -0.3573963344, 0.1091160849, 0.0262092389, 0.0661161169, -0.0803396255, 0.7469824553, 0.0063999100, -0.2754008174, -0.0496870950
};

data_t cells_0_ops_by_node_1_0_conv2_weight[4][8][1][1] = {
-1.2104328871, 0.2608158588, -0.0362770520, -0.1997309029, 0.0154559808, -0.0083320197, -0.2208842784, -0.2680599988, -0.5241864920, 0.0893272981, -0.1685268283, -0.1060206667, 0.0632264465, 0.0095307743, 0.2180702090, -0.2923535705, 0.0763017535, -0.5803733468, 0.1283771098, -0.5548081398, -0.4598969221, 0.0047632074, 0.1716394722, -0.0224430673, -0.0743051097, -0.6064487100, -0.2366991639, -0.5057652593, -0.2599799037, -0.0035277389, -0.0659975410, -0.2885031998
};

data_t cells_0_ops_by_node_1_1_op_1_weight[8][1][5][5] = {
0.0956451520, 0.0454782099, 0.0121208141, 0.0508130006, 0.0290276315, 0.1060751528, -0.0553402901, 0.0122406827, 0.0515476130, 0.0501361936, 0.7748290896, -1.1187106371, -0.2169075757, 0.0012728703, 0.0445719287, 0.0253669601, 0.0549305677, 0.1121650115, 0.0615587272, 0.0633838400, 0.0786997080, 0.0695408806, 0.0051048757, 0.0179638453, 0.0117643960, 0.0058567324, 0.0023020071, -0.1133485734, -0.0325353257, -0.0472554713, -0.0017128519, -0.0610049143, -0.0293443911, -0.0825211555, -0.0615149885, 0.1175262928, 0.4025102556, -1.2740693092, 0.3914053738, 0.0243507288, -0.0633064285, -0.0241453666, -0.0729033351, -0.0937110409, -0.0333892442, -0.0121131493, -0.0107258586, -0.0633383021, -0.0007440509, -0.0727745891, 0.3338580132, -0.0415194929, -0.0497641191, 0.1588316113, 0.2753440142, 0.4511886239, 0.0545685776, 0.0004024611, 0.1086916178, 0.2595163584, -0.2917510271, -0.0338244438, -0.0243267566, -0.4175569117, -0.8518140912, -0.0427767150, 0.0730780363, -0.0808972493, 0.1395225972, -0.1041676551, -0.2782741189, 0.0850113034, -0.0255200565, 0.1704345196, -0.1435081512, 0.0533749238, 0.0394163989, 0.0418795981, 0.0592360720, 0.0505437329, 0.1540183127, 0.0907116532, 0.1204175055, 0.1012178287, -0.0260460582, -0.3158558011, -0.1741089374, -0.1802230775, -0.1970267445, -0.2322249264, 0.0892331526, 0.0222364888, 0.1079372093, 0.1201489568, 0.0504754558, 0.1226970628, -0.0944819525, 0.0504771322, -0.0202699732, 0.0477218926, 0.0014878403, 0.0250522345, 0.0699621662, -0.0092889005, -0.0552708879, -0.0620285869, -0.1641668379, -0.1275485158, 0.1290904433, 0.0372484624, -0.2968700826, 0.4456604719, 0.1394675225, 0.5262098908, -0.5106021166, -0.1120505705, -0.0575751737, 0.0851639509, 0.0958171263, -0.0230353288, 0.0084727071, 0.0139239160, 0.0495371260, 0.0507685952, -0.0878001451, 0.1298629642, 0.1038161665, 0.0259427577, 0.0381466858, 0.1711875349, 0.0570153594, -0.0596203879, -0.0752025917, -0.0515065342, 0.0088086911, 0.0891981721, -0.2896260023, -0.0044197310, -0.0156486016, 0.0445758179, 0.1234723628, 0.0325432494, 0.0028282928, 0.0815248489, 0.0403856523, 0.0131091299, 0.0765768364, 0.0204687156, 0.0501281619, 0.0290272459, 0.0079042455, 0.0105715087, -0.0125900395, 0.0320342220, -0.0009206086, 0.0815839767, -0.0123340348, -0.0735037476, -0.0156109175, 0.0489592589, 0.2599683404, 0.1300637424, -0.0577193536, 0.0814753845, 0.1465699524, 0.0838791877, -0.0281182136, -0.0534908026, -0.0279330760, 0.0591211952, 0.0383944958, 0.0136488462, -0.0247945972, 0.0017941648, -0.0326341465, 0.0009061313, 0.0163263306, 0.0840363726, 0.1183581203, -0.0402750671, -0.4483532608, -0.1090124622, -0.1039514989, -0.1168940440, -0.4113664925, -0.2873518765, 0.0240184013, 0.0300277229, 0.0471449532, -0.3324110806, 0.0163993631, -0.0003938828, 0.0659437180, -0.0023128125, 0.0580916628, -0.0531624667, -0.0086670825, -0.0221750066, -0.0089324256, -0.0027017759
};

data_t cells_0_ops_by_node_1_1_op_5_weight[8][1][5][5] = {
0.0230114572, -0.0057057082, -0.0403062440, -0.1042912230, 0.0007574158, -0.0450082012, -0.0099478448, -0.0499086790, -0.0420704968, -0.0024074249, -0.5042646527, 0.7924659252, -0.2587365806, 0.7413073182, -0.4434850812, 0.0461095534, 0.0369467996, -0.0552777015, -0.0153846387, -0.0426939838, -0.0150037678, -0.0188409276, 0.0169261210, -0.1172538698, -0.0612663701, -0.0115779769, -0.0177849010, 0.0272981841, -0.0043186448, -0.0085216649, 0.0067883409, 0.0107080182, 0.0183924735, 0.0000854382, 0.0409493148, 0.2400610745, 0.2846243680, 0.1959859431, 0.2329857945, 0.1381621212, 0.1936951429, 0.3014941514, 0.1347482800, 0.4008668959, 0.2869389951, -0.0557570346, -0.0572964288, -0.0866031796, -0.0347961709, 0.0281113256, 0.0748138353, -0.0668861046, 0.0526166745, -0.0525837354, 0.0133075053, 0.0343046263, -0.0399184301, 0.0914695188, -0.0102093071, 0.0745756626, 0.0636748895, -0.2784045041, -0.5418483019, 0.3805556297, 0.3388123810, 0.0366479196, -0.0222969986, 0.0327939652, 0.0644095168, 0.0106418449, 0.0161477309, 0.0754427165, 0.0304350145, 0.1007692739, 0.0253096018, 0.0182894561, 0.0447695442, 0.0224451348, 0.0874373540, 0.0434389152, 0.0052082329, 0.0043429900, -0.0407545157, -0.0115963351, -0.0904357359, 0.1494670212, 0.0306964759, 0.1972391605, 0.1501567960, 1.2740746737, -0.0478660576, -0.0231003854, -0.0079311552, 0.0101155266, 0.0081234956, 0.0204610992, 0.0500888042, 0.0745230466, 0.0434657857, 0.0040206560, 0.0986152291, 0.0866644010, 0.0404054858, 0.0686590523, 0.0620390773, 0.0834807158, 0.0456989780, 0.0718043223, 0.0933160484, 0.0952494740, 0.0214278996, 0.0606952384, 0.0780860633, 0.0424666032, 0.1159273311, 0.0888550282, 0.1127489507, 0.0959818736, 0.0483102947, 0.1107953638, 0.1032450721, 0.1261266321, 0.0401780307, 0.0409267321, 0.0809067413, 0.1067982689, 0.0867374092, 0.0683488101, 0.0296220202, 0.0616036095, 0.1026611701, 0.0896307752, -0.0233817026, 0.0331158638, 0.0428621136, 0.1252930760, 0.2823142111, 0.4456129670, 0.4977458417, 0.3339104652, -0.0851493105, 0.0200492237, 0.1359658390, 0.1677511036, 0.0325546488, -0.1009387225, -0.0978848189, 0.0934565142, 0.0985482559, -0.0161595177, 0.1486474276, -0.0906075761, -0.0921495780, -0.0205927342, 0.0969422758, -0.0708247423, -0.0785213038, -0.0387189314, 0.0635928512, 0.0463345200, 0.2005127370, 0.2172956765, 0.0810605511, 0.1884098351, 0.4923002124, -0.2467318624, -0.2903176844, -0.1141656414, -0.0566669144, -0.1579440832, -0.2281708717, -0.2798240483, -0.0834243372, -0.2339231670, -0.2319642007, 0.0217716843, 0.0167074278, -0.0432607867, -0.0136381472, 0.0448817722, 0.0552053191, 0.0844694003, -0.1429187506, -0.0564220361, 0.0398364402, 0.5716395974, -0.5927998424, 0.1293577105, -0.5489408970, -0.1086064577, -0.1239694580, -0.0126365144, -0.0173473135, 0.0630392656, -0.1091165841, 0.0447493307, 0.1190577671, 0.0413069651, 0.0489253663, -0.0108720027
};

data_t cells_0_ops_by_node_2_0_op_1_weight[8][1][3][3] = {
0.0615000799, 0.1612493545, 0.1159669086, -0.1095016301, 0.0028607124, 0.0331355892, 0.0656673461, 0.1041890159, 0.0480902418, -0.1258150637, -0.1178178489, -0.0435754694, -0.0935417488, 0.0107270842, -0.0469202623, -0.0998173058, -0.0510692224, -0.0809888318, -0.1848503500, -0.1438715309, -0.1671048850, 0.1933834106, 0.0282987617, 0.2043139189, -0.1327967495, -0.1672825962, -0.1697167009, -0.0224570427, -0.0388696454, 0.0011934071, -0.0566518903, -0.0527759865, -0.0647210628, -0.0477287136, -0.0883593187, -0.0902505293, -0.1018791571, -0.0628134683, -0.0177794192, 0.0314060189, 0.1649222672, 0.1325767785, -0.1284915209, -0.1076664552, -0.0922761485, 0.0016758997, -0.0708063990, -0.1453294307, 0.2411518246, 0.1571654677, 0.2736184597, -0.0234064404, -0.0346942581, -0.0607972518, 0.0571343601, 0.0825701579, 0.1348001361, -0.0933948308, -0.2491233945, -0.2436301708, 0.1087018847, 0.0740879625, 0.1366811246, 0.0754678771, 0.0203963593, 0.0080066584, 0.2640999854, 0.0671886504, 0.3609886765, 0.1501186341, 0.0028758994, -0.0003709712
};

data_t cells_0_ops_by_node_2_1_op_1_weight[8][1][5][5] = {
0.1652016789, 0.0763755962, 0.0033393682, 0.0316200182, 0.0082841646, -0.0977831781, -0.0490498617, -0.0120338285, -0.0951728001, -0.0162342079, 0.1547678560, -0.1235008016, -0.5017649531, -0.0677541271, -0.1160380095, -0.0507545732, 0.0910392106, 0.0169010013, -0.0760573968, 0.0489795469, 0.0369506292, 0.1318417192, -0.0810442492, 0.0490482152, 0.0765833035, 0.0165516138, -0.0082849199, -0.0334807038, 0.0519970171, 0.0267896503, 0.0109901661, -0.1350708306, 0.0370952599, 0.1411330551, 0.0194795169, 1.2360731363, -0.8537864089, 0.1241483539, 1.0018014908, -0.9670283198, -0.0738032907, -0.0982967541, 0.0102619370, 0.0952602848, 0.1346044242, 0.0310107060, 0.0148427570, 0.0126029858, 0.0587706752, 0.0677386969, 0.0350784287, 0.0968294069, -0.1169492975, 0.0358613208, -0.0199456029, 0.3979884386, 0.1536097974, -0.0877760053, 0.1607583165, 0.2269664109, -0.4940427244, 0.7034386992, 0.2375545949, -0.1071247682, 0.8746303916, 0.3309780657, 0.2553201616, 0.0975628123, 0.1773340851, 0.2018475682, 0.0820723698, -0.0391313769, -0.1562438160, -0.1336520761, -0.0448592342, -0.0006592589, 0.0083782030, 0.0090937521, 0.0355703458, -0.0267879013, 0.1477675736, 0.0599812269, -0.1153987125, -0.0751193911, -0.0030630333, -0.4233655334, -1.0010964870, -0.2897772789, 0.9999850988, 0.5461741686, 0.1467645019, 0.1565221250, -0.0445756055, -0.0715117157, -0.0325464979, -0.0460167564, 0.0112398556, 0.0004371695, 0.0071936925, 0.0111885285, 0.0679232180, 0.1251521707, 0.0429385938, -0.0233964138, 0.0409668833, 0.0293355566, -0.0333274417, -0.0352844112, -0.1175237074, -0.1503809243, 0.1146109253, 0.7247711420, -1.5329535007, 0.4016359150, 0.5604385734, 0.0274012219, -0.0411992036, -0.0732630417, -0.0251656305, 0.0149974767, 0.0356980748, 0.0586689748, -0.0388664752, -0.0549980998, -0.0412937924, 0.0234538484, 0.0232214555, -0.0403249227, -0.0377665944, -0.0260914452, 0.1349629909, 0.0617706142, 0.1066365093, 0.1631025970, 0.1548378319, 0.1183525100, 0.1203379780, 0.1894941479, -0.1126173064, 0.1893565804, 0.0936879516, 0.2393479347, 0.0845780969, 0.2105896026, 0.0866998136, 0.1613481492, 0.0500582792, 0.0041139633, 0.0782704502, 0.0344888158, -0.0257224403, -0.0354390740, 0.0208985154, 0.1069142595, 0.0358095914, 0.0203840192, 0.0522474982, 0.0918884277, 0.1820123941, 0.0706881061, 0.0405978933, 0.4881553650, 0.4324321151, 0.8895496130, -1.2345765829, 0.0500315465, 0.0656745732, 0.1071741506, 0.1288637221, 0.0964820981, -0.0053311884, -0.0133945970, 0.0459289476, 0.0643186271, 0.0707487985, 0.0597168058, 0.1180606559, -0.1556353122, -0.0742248297, -0.0029494681, 0.0975020304, 0.0796960220, -0.0248444304, -0.0760447383, -0.0084111812, 0.2818101943, -1.5009726286, 0.8286058307, 0.5546974540, -0.0012372433, -0.0483941324, -0.0374082997, -0.1343076676, -0.0072093089, 0.0810889304, 0.0531762093, 0.0029754757, -0.0133185433, -0.1010850966, -0.0540737398
};

data_t cells_0_ops_by_node_2_1_op_5_weight[8][1][5][5] = {
-0.0094200261, 0.0397712141, -0.0173218623, -0.0379851796, -0.1159539744, -0.1308102459, -0.1530091614, -0.1703868806, -0.2157221437, -0.1339628398, -0.2480522841, -0.4287419319, -0.3105071187, -0.3270958066, -0.1985004991, -0.1995317042, -0.3304317892, -0.2654522657, -0.3328791559, -0.2218939662, -0.0885156989, -0.1391705424, -0.0199144948, -0.0439390093, -0.1471687257, 0.0312789008, -0.0571825579, -0.0484358482, 0.0251984857, 0.0382719710, -0.0873532668, -0.1242072359, -0.0429623574, -0.0851297081, -0.0651604086, -0.2544040084, -0.2852111161, -0.2774170339, -0.3037935197, -0.2461052686, -0.2565282285, -0.2850042582, -0.1838565320, -0.2298634946, -0.2043522000, -0.0627395213, -0.0871234909, -0.0090039428, -0.0548320673, -0.0914064646, 0.0327141173, 0.0382400677, 0.0190113168, 0.0538576655, -0.0215860978, 0.1098125651, 0.1375380903, 0.1159472540, 0.1435681283, 0.1178340539, 0.2166333795, 0.2915819287, 0.1958528310, 0.2265432626, 0.2758181095, 0.2326725125, 0.2707905769, 0.1615076959, 0.2886691093, 0.1711293012, 0.0981750041, 0.1441892087, 0.0330760367, 0.1424409598, 0.1495532244, -0.0434018262, -0.0660211742, -0.0474942550, -0.0055262214, -0.0127903065, 0.0803134963, 0.1747757941, 0.1110812351, 0.1148077250, 0.1000466272, 0.2174373716, 0.3907776475, 0.4290213585, 0.3863181472, 0.2599369586, 0.1354551911, 0.2896477878, 0.4268393517, 0.3814865649, 0.1904882491, 0.1212759539, 0.0804774091, 0.0940475985, 0.0980990082, 0.1316209137, 0.1099727303, 0.1114664227, 0.0738784596, 0.0013028722, -0.0234300327, 0.0560433194, -0.0027680693, -0.1098200232, -0.0485531203, 0.0691993982, -0.1515331268, -0.3402974010, -0.5033412576, -0.3120092154, -0.0770186484, 0.0095461356, -0.2018639594, -0.5024768114, -0.4323263466, -0.1339800805, 0.1037225574, 0.0580567941, 0.0175489541, -0.0630302280, -0.0171861574, 0.0690083876, 0.0180946887, -0.0058107628, 0.1273993850, 0.0288402420, 0.0998531580, 0.1371958405, 0.0823836103, 0.1324554682, 0.1351125091, 0.2920795381, 0.3182234168, 0.1417829841, 0.1935432851, 0.2438846827, 0.2141928524, 0.2314674407, 0.1648710519, 0.2698794603, 0.2384560555, 0.0105975047, 0.0650908798, 0.0862502307, 0.0665782616, 0.1437880397, -0.0532694161, 0.0411478505, -0.0023844631, -0.0888051838, 0.0527135991, 0.0545153581, 0.0021140506, -0.0556769557, 0.0509782322, 0.0404105075, 0.4022753835, 0.4534425437, 0.1980306208, 0.3707402647, 0.3112269640, 0.3065948188, 0.2522202730, 0.1609520614, 0.2901555598, 0.2774769366, 0.0672549605, -0.0416865870, -0.0319397673, -0.0455768518, 0.0922455341, -0.1099134758, -0.1003987715, 0.0085629448, -0.0250019468, 0.0107231578, -0.2530041337, -0.1932606697, -0.0671322718, -0.3040573597, -0.2081422657, -0.0478792451, -0.3466751873, -0.3677445054, -0.3318334222, -0.3410710692, -0.3012247682, -0.3578194082, -0.2586258352, -0.3581680059, -0.2928498089, -0.2956812382, -0.2630534470, -0.1613938808, -0.0776983052, -0.2040775269
};

data_t cells_0_ops_by_node_3_0_op_1_weight[8][1][5][5] = {
-0.0378048830, 0.0337007530, -0.0322094411, -0.0260219071, -0.0696672946, -0.1076448858, -0.0313728563, -0.0080177644, -0.0052174209, -0.1112452298, -0.6583212614, -0.0929463655, 0.0411557071, -0.1182963625, -0.6408962011, -0.1443167180, -0.0272799786, 0.0084654205, 0.0042183246, -0.0562377423, -0.1068083271, 0.0159505494, 0.0040478059, -0.0446309857, -0.0401871465, -0.0582270399, -0.0631842539, -0.0478479788, -0.0175324697, -0.0150708370, -0.1054034233, -0.0867628679, -0.0953655541, -0.0997463092, -0.1088519767, -0.2928424478, -0.3613323867, -0.3754404783, -0.3043299317, -0.3234600127, -0.0929230675, -0.0618271641, -0.1127414033, -0.0755130276, -0.1326072365, -0.0465709493, -0.0473745018, -0.0747223571, 0.0147208339, 0.0542437471, -0.0208480805, -0.0478745736, -0.0036467051, 0.0248859655, -0.0567762814, -0.1817281693, 0.0055735456, -0.0566512309, -0.0037385926, -0.2250700444, -0.6897785664, -0.0339213721, -0.0020482021, -0.1041957438, -0.6726655364, -0.2717329264, 0.0392410755, -0.0898872241, 0.0014159731, -0.2541023195, -0.0384402238, 0.0392079093, -0.0223487299, 0.0528223217, -0.0442238450, 0.0156604201, -0.0119320508, 0.0109189823, 0.0344743952, 0.0523658954, 0.0544875525, 0.0372801982, 0.0304027963, 0.0744140148, 0.1496788859, 0.4590578973, 0.2915895581, 0.1537503004, 0.1722267717, 0.5256549120, 0.0764154568, 0.0220270436, 0.0810634792, 0.0750968754, 0.1586009860, 0.0406320132, -0.0325847156, 0.0279860757, 0.0354409032, -0.0099376850, 0.0139743816, -0.0070684585, -0.0788750052, 0.0470064320, 0.0297001693, -0.0643155277, -0.0334671363, -0.2271689624, -0.0041010035, -0.1112182066, -0.8476462960, 0.0717363656, -0.4542947710, -0.0050459276, -0.8573985100, -0.0130391093, -0.0006455432, -0.1494078934, 0.0512817949, -0.0437789746, 0.0076406640, 0.0939020962, -0.0283829365, 0.0888271630, -0.1123310179, -0.2430809140, -0.1069748923, -0.1082529575, -0.1341619790, -0.1939278394, -0.0478178896, -0.0021957594, -0.0016030506, -0.0300880391, 0.0807854459, -0.0638958141, -0.0131905191, 0.1632088572, 0.0945096985, 0.0885995179, -0.0703241155, -0.0179836247, 0.0160702057, -0.0400839336, -0.0373587422, -0.1456846595, -0.1546528786, -0.0958803594, -0.1059682965, -0.1301378459, -0.1099455953, -0.0383363701, -0.0203639064, -0.1049528494, -0.1131237075, -0.0586577803, -0.0260366034, -0.1041936576, -0.0482916087, -0.0226787087, 0.1539612263, 0.1106929556, 0.1769888550, 0.2976065576, 0.4311524630, -0.0900275037, -0.1046454832, -0.1124473289, -0.0808943510, -0.0548549742, -0.0663677305, -0.1293657124, -0.0750551820, -0.0806466490, -0.0615582690, 0.1759525836, 0.1673472077, 0.1486990601, 0.1187786162, 0.1783837676, 0.0239459686, 0.0429873206, 0.0428916104, -0.0127989361, -0.0336876363, -0.2752404213, -0.2015784085, -0.2340587974, -0.2719733417, -0.3490693271, 0.0040950850, 0.0360206217, 0.0276380070, -0.0276398119, -0.0965632498, 0.1575140804, 0.1373550594, 0.1514011174, 0.1084084660, 0.1191278175
};

data_t cells_0_ops_by_node_3_1_bn_bias[8] = {
0.1471014023, 0.1443794370, -0.0170039963, 0.1234647855, -0.2872322500, -0.1030708179, -0.1087548956, 0.1378612965
};

data_t cells_0_ops_by_node_3_1_bn_running_mean[8] = {
-0.0250874069, 0.0132577186, 0.2808992267, 0.0456701890, -0.0167820789, -0.0814144313, 0.0126671251, 0.0469815023
};

data_t cells_0_ops_by_node_3_1_bn_running_var[8] = {
0.0024390167, 0.0016823687, 0.1242686585, 0.0044204914, 0.0007983916, 0.0060892473, 0.0019110554, 0.0070402571
};

data_t cells_0_ops_by_node_3_1_bn_weight[8] = {
0.0665452927, -0.0543327332, 1.2251719236, -0.1409655958, -0.1543328017, 0.1382066458, -0.0856310725, 0.2582240701
};

data_t cells_0_ops_by_node_3_1_conv1_weight[4][8][1][1] = {
0.0125784827, -0.0391332507, 0.0500452928, 0.1368085742, -0.2145206928, 0.0027847635, -0.1049427390, -0.0252873730, 0.0555923209, 0.0685710758, -0.1348636746, -0.0107469838, -0.0553852469, 0.0033840421, 0.0844865814, 0.0813720524, -0.2314720601, 0.1182548478, -0.4614641368, 0.5730161071, 0.6339153051, -0.0007075039, 0.0201781802, -0.1148910820, -0.0445030034, 0.2343959659, 0.0908910856, -0.0365235060, 0.0856648982, 0.0061358488, 0.0200855117, -0.0205702670
};

data_t cells_0_ops_by_node_3_1_conv2_weight[4][8][1][1] = {
-0.0569260456, -0.1315311193, 0.0001184907, 0.0059041935, 0.0445462391, 0.0023099338, 0.0097377030, -0.0298394561, -0.2026367784, -0.0806298405, -0.0744980946, -0.0661954135, 0.1659143120, 0.0049477187, -0.1023578644, -0.1690824181, -0.1039228812, 0.0062364405, 0.0036447835, 0.0509448685, 0.0877913386, 0.0008699212, -0.0358216800, -0.0198877808, 0.1911475956, 0.1047521308, 0.0788986534, -0.2167924941, 0.1545872986, 0.0082917167, 0.1414528340, -0.0160726123
};

data_t onnx_Conv_316[8][8][1][1] = {
-0.1363869160, -0.6722265482, -0.5780367255, -1.6332820654, 1.7163345814, -0.0000516951, -0.4708285332, -0.6011289358, 0.9481306672, 0.3690427542, 0.3186057210, 0.2264908403, -0.4877560437, 0.0006132593, 0.3409425318, -0.5349381566, 0.2556974292, 0.0989685506, 0.4269981086, 0.2695518434, -0.0039010218, 0.0000526457, 0.0516876914, -0.3391734660, -1.8239830732, 0.0258800015, 0.8940724730, 1.7777655125, 0.1110355332, -0.0047822944, 1.5690308809, -0.6581698656, 0.5922238827, -0.2422674000, 1.3133299351, 0.1580926478, 0.5726166368, 0.0013954978, 2.3914663792, 0.1892325431, -0.2146452963, -0.8085662127, 0.8276060820, 0.2799993753, -0.2726917863, -0.0017048705, -0.5747911334, 1.4640105963, -0.4356448650, 1.3883826733, -0.0487713329, -0.0958496407, -0.2731881440, -0.0003628330, -0.1206763014, -0.8154137135, 0.5726181269, 0.3305239379, 0.6043811440, 0.1559057981, 0.0292592458, -0.0004103365, 0.5368109345, 0.6150699854
};

data_t onnx_Conv_317[8] = {
-0.7647220492, 0.2966498733, 0.1746749878, 1.5242770910, 1.0310227871, -0.7155108452, 0.3536548913, -0.0115326419
};

data_t onnx_Conv_319[8][8][1][1] = {
0.0043271296, -0.0555506796, 0.2832490504, -0.0406029858, -0.2040717155, 0.4869743884, 1.1591446400, 0.3160850704, -0.0107330279, 0.0812972337, 0.3326618075, -1.3415961266, 0.7971493602, -0.6949856281, -0.5461888909, -0.1449351311, -0.0097423578, -0.1615657061, -0.1219330728, -0.4009185135, -0.2758750319, -0.4856634438, -1.9733307362, 0.4859166741, 0.0028874076, -3.2713468075, -0.2419212610, -0.2655617893, 0.3026806414, -0.5843721032, -0.4784234464, -0.3888945282, 0.0044810488, -0.0520692468, 0.1994879246, -0.0646497682, 0.6425617337, -1.2078049183, 0.5872575641, 0.0252718516, -0.0008244126, -0.0000142272, 0.0000435585, 0.0000222548, -0.0000073356, 0.0000034023, 0.0001921606, -0.0004197998, 0.0011340450, -0.3419096172, -1.1132848263, -1.2845165730, 0.3380942047, -0.2851174474, -0.1872663349, -2.7353968620, 0.0161183160, -0.0424015783, 1.7106084824, -0.8426419497, -1.4638339281, -0.3970290720, -0.3408892751, -0.1052170023
};

data_t onnx_Conv_320[8] = {
0.5371424556, 0.2653542757, -0.6776646376, -0.1142337546, 0.2804102302, -0.0015029912, 0.2001040578, -0.7464909554
};

data_t onnx_Conv_322[8][8][1][1] = {
0.7997201085, 0.3041668832, 0.0402996019, 0.1041621938, -0.3693894744, 0.0024902795, 0.3532004058, 0.1230768040, 0.0587724522, -0.3150652945, -0.2553808987, -0.0657235757, -1.2973355055, -0.0044823694, 0.0638625026, 0.2299150825, 0.8834784031, -0.4143343866, -0.6214184761, 0.1876416802, -0.3541502953, -0.0012050499, 0.1270669997, 0.0308017358, 0.6086041331, -0.7657983303, 0.9627053738, 0.2556344569, 0.0217774864, -0.0062075057, 0.6893641949, 0.1721962243, 1.2485103607, -0.6776586771, 0.9821582437, -0.0118954713, -0.0366970822, 0.0013774005, -0.0895172656, 0.4011244178, 0.6885194182, -0.5423103571, 0.3836244941, 0.0004055482, 0.1490392089, -0.0033337015, -1.0447468758, -2.4698376656, -0.1425144076, 0.3075469732, 0.2088017613, 0.1770646423, 0.1587205231, 0.0003706351, -2.7479043007, 1.1604778767, 0.1975874901, -1.0894778967, 0.4828178287, -2.4974210262, -0.2432194203, 0.0237572789, -0.3364259005, 0.0386898443
};

data_t onnx_Conv_323[8] = {
0.6162855625, 0.2241854668, 0.5252231956, -0.5330699682, 0.1698319912, -0.6650332212, -0.6200666428, 0.3630806506
};

data_t onnx_Conv_325[8][8][1][1] = {
0.1222406402, 0.8123835921, -0.1670489460, -0.0908834934, -0.0482746363, 0.0058288057, 0.2152357846, 0.2818242908, -0.0968694389, -0.0139109185, -0.3363975585, -0.1741893440, 0.0487607829, -0.1151217744, 0.2028979212, -1.6504135132, -0.2603663206, 0.6722805500, -0.1742278785, 0.1011182368, 0.2398005277, -0.2901912630, 0.0596257560, 0.0017877606, -0.9889624715, -0.0028466852, 0.1054338142, 0.3171553016, 0.0020948439, -0.3277302086, -0.1732704341, -0.0974443257, -0.1987993568, 0.1522307247, 0.4243786931, -0.1027815789, -0.0180617068, 0.1357830763, 1.3576626778, 0.3306424022, -0.0994080529, 0.0209458098, 1.9673055410, -0.6596360207, 0.1691553444, -0.2266350240, -0.2342742532, -0.3317585886, 0.0330744609, 0.0233806111, -1.1374779940, 0.2257173657, -0.2641125917, 0.0186602157, -0.2551101446, 0.0251567531, -0.3427918553, -0.1281898469, -0.1027989760, 0.5185382366, -1.1445364952, -0.0257194415, 0.1141602769, 0.5896705985
};

data_t onnx_Conv_326[8] = {
0.5551209450, -0.6537725329, 0.5286998153, 0.6385269761, -0.4138565361, 0.0992773622, 0.2678776085, 0.3537825942
};

data_t onnx_Conv_328[8][8][1][1] = {
-0.0153145725, 0.0136290956, -0.0131636681, -0.7369287014, 0.6121999025, -0.2109668255, 0.1291220635, 0.2345028669, -1.0571885109, -0.3710629940, -0.0643829629, -0.0018298597, -0.0639035180, -0.3025846779, 0.2853798270, -0.2435948253, 0.8722208738, -0.3519684672, 0.0070376196, 0.0384396426, -0.1673414111, -0.2248951793, 0.1868363619, 0.7674162388, -0.0431456640, -0.4495350718, 1.2291462421, 0.1489196420, 0.1663145423, -0.4114154875, 0.8236902356, -0.2752926946, -0.0112308702, -0.5858649015, 0.0313446149, 0.0517218448, -0.2268393934, -0.6598654985, 0.5090135336, -0.0247094389, 0.2288964540, -0.0988103524, -0.1429536939, 0.9496137500, -0.0058597275, -0.1769383997, -0.1577214748, -0.6444479227, -0.0787003860, -0.5445154905, -0.3585556149, -0.9200436473, -0.1774167567, -0.4770840406, 0.3785595000, 0.5563895702, 0.3984299302, -0.5308648944, 0.1147775501, -0.8846150637, -0.2265449762, -0.1165333316, 0.4901515543, -0.0390222222
};

data_t onnx_Conv_329[8] = {
0.6539064646, 0.2713392377, 0.0844496191, 0.2041283846, 0.5626098514, -1.2597119808, 1.4716635942, 1.3887615204
};

data_t onnx_Conv_331[8][8][1][1] = {
0.3865370154, 0.3503728509, 0.2443334311, 0.1002019197, 0.2355777323, -0.1415843517, -0.2351575494, -0.9989099503, -0.2686607838, 0.1001547351, -0.3650765419, -0.5368306041, -0.0906101242, 0.1518783718, -0.5375659466, -0.2588970065, -0.0603837296, -0.0259774607, 0.0243823491, -0.0098869996, -0.0479329824, -0.1298960000, 0.0373505056, -0.0180376843, -0.0577178225, 0.1651981324, 0.3435579240, -0.1583797187, 0.0716769993, -0.3029994071, -0.0503878221, -0.4313654006, 0.0002829958, 0.0000657446, -0.0000815939, 0.0002373361, -0.0001387078, 0.0012169600, -0.0006775595, -0.0001561510, -0.1752845794, -0.5396913290, 0.3701384366, -0.1501031071, 0.3395367563, -0.4499263465, -0.2192663699, -0.7277438045, -0.2361173779, 0.0444888994, 0.1175254360, -0.0421559140, -0.1228044927, -0.0308585018, -0.3093869388, -0.1933230609, 0.3885979652, -0.2868691385, 1.0523564816, 0.5874086022, -0.5403468013, -0.9714782834, -0.3009665310, 0.3246330619
};

data_t onnx_Conv_332[8] = {
0.4894316196, -0.4046666920, 0.2187452912, 0.4963415861, 0.3705179989, 0.3612446785, 0.3973957300, -0.1640493870
};

data_t onnx_Conv_334[8][8][1][1] = {
0.2834480703, -0.2293467522, -0.1406893432, -0.0266334563, 0.8044318557, -0.5060206056, -0.2085912079, -0.7094812989, 0.0934451520, -0.0684155896, -0.2493456304, -0.7608404160, 0.2067549229, -0.2168898135, -0.1310539842, 0.1336195916, -0.2272330523, -0.0919867605, 0.0783699751, -0.1139723882, -0.6219452620, -0.3462604880, -0.6917955875, -0.6171028614, 0.1304914504, -0.7828367352, -0.5441880822, -0.0452222303, 0.0569493845, 0.0916166529, 0.0136655681, 0.0552218668, -0.0050737509, -0.4355862737, -0.4743607342, 0.0169870052, 0.0671893284, 0.0942090973, -0.0452119932, -0.0276084058, 0.3500763476, -0.1535390913, -0.2577467561, -0.0115758870, 0.7367197871, -0.2024081051, 0.1291453838, 0.5367651582, -0.0779961646, -0.0938916504, -0.3410464227, 0.0777905360, -0.0355800800, 0.2760336399, 0.0972071663, -0.1963318586, 0.1364156902, 0.0613247156, -0.0617697611, -0.1844698638, -0.1078993753, -0.5953330398, -1.2082989216, -0.0492151082
};

data_t onnx_Conv_335[8] = {
-0.0746048987, -0.0391396284, 0.2237044573, -0.1990992427, 0.6304916143, -0.0209838748, 0.7303622961, -0.2364501953
};

data_t onnx_Conv_337[8][8][1][1] = {
-0.5530932546, -0.6159732938, -1.4225891829, 0.0292066187, -0.5376007557, -0.3705149293, 0.7661634088, -1.0095034838, 1.7803839445, -1.1041917801, 0.8056137562, -1.3267757893, -0.9023844600, 0.8029283881, 0.7947549820, 0.2543149590, -0.9913554192, 0.3178465068, -0.7227283716, 0.3334640563, 0.4395563006, -1.2039436102, -0.7537565827, 0.1513834596, 0.6550063491, -0.5306082368, -0.2273425758, -0.0480329990, 0.6719155312, 0.0947471708, -0.1960975230, -0.7741876841, 0.2121035904, 0.3762239516, 0.3147203028, 1.3980445862, -0.6130375862, 0.1179139763, -0.0357365161, 0.0679513291, 0.6528732777, 1.6157653332, -0.3896947801, 0.4615131915, 0.0602648333, 0.0677498728, -0.2193698138, -0.6830019355, 0.3216410279, -0.5024347901, -0.3013425171, 0.4293131530, -0.0403269716, -0.0871259421, -0.1850936711, 1.3599413633, 0.9058847427, 0.3292554617, -0.6689544320, 0.3443174362, -0.2647514641, -1.1478557587, -0.1374437511, 0.4167659581
};

data_t onnx_Conv_338[8] = {
-1.7164502144, -2.9783911705, 2.9786973000, 1.5090010166, -0.7253227830, 1.7405711412, 1.2185708284, 1.6206889153
};

data_t onnx_Conv_340[8][8][1][1] = {
-0.6387800574, 0.1272292882, 0.3312847018, 0.0367952920, 0.6919317842, 0.0865383744, 0.1488553584, 0.1883355677, -0.0628736243, 0.4317340553, -0.0430117659, -0.1200721934, -0.7538586259, -0.0838696659, 0.0548798852, -0.0540786013, -0.0111044887, -0.0029515021, 0.0557939149, -0.2798120379, -0.0402966514, -0.1254847348, 0.1010643169, 0.1510139704, 0.5330666900, 0.0170461144, -0.4786191285, 0.4280199707, 0.2471167147, -0.1073948890, 0.4034736156, -0.1339095384, -0.6319491863, -0.4789822102, 0.3185592592, 0.2835050821, 0.4874233305, -0.3204557002, -0.1085448712, -0.5009281039, 0.2156372815, 0.9650893211, 1.2264546156, 0.6106236577, -0.1592168659, 0.0287586208, -0.1520035267, -0.0096464017, 0.8142905831, -0.3870115578, -0.6919313073, -0.7183271646, -0.0976559222, -0.3981375694, 0.0475797728, -0.0903524011, -0.0943893343, 0.2680196464, 0.1337257773, 0.0247668456, -0.0462970845, 0.4701696038, 0.5468614101, 0.9511187077
};

data_t onnx_Conv_341[8] = {
1.1220471859, -1.1605978012, 0.3484387696, -0.0487863496, -0.5550247431, 0.7289934158, 0.6887882948, 0.4431990981
};
