#include "cell1_weights.h"

data_t cells_1_ops_by_node_0_0_op_1_weight[16][1][5][5] = {
0.0674236864, -0.0059609069, -0.0623175800, 0.0413747095, 0.0781822503, -0.0366386063, -0.0092577348, -0.0125664771, 0.0071150316, -0.0412438102, -0.1713285446, -0.1635554135, -0.1997708827, -0.1367846578, -0.0541383959, 0.0271302182, -0.0687027276, -0.0645960048, -0.0471094809, 0.0034607928, 0.0863909647, 0.0068237269, 0.0361579023, -0.0230604652, -0.0894979239, -0.1402985156, -0.0847952440, -0.0882961005, -0.0856489986, -0.0977715477, -0.1325195581, -0.0718797222, -0.0334135145, -0.0585494563, -0.1165970191, -0.0989315584, -0.0392682143, -0.0338835269, -0.0716850162, -0.1015430242, -0.1152810827, -0.0735997334, -0.1184223667, -0.0996733904, -0.0829772055, -0.1640696973, -0.1346625984, -0.1587733924, -0.1534132361, -0.1215839759, 0.1499001831, 0.1014109403, 0.0599285066, 0.0872003958, 0.1233302951, 0.1415526420, 0.0793507546, 0.0673232973, 0.0721049309, 0.1144212261, 0.1356126070, 0.0812261254, 0.1030383259, 0.0761913806, 0.1119242981, 0.1688825935, 0.0868174061, 0.0960283279, 0.1249959990, 0.1613360047, 0.1606557518, 0.0998576730, 0.0723960027, 0.1043290272, 0.1560453624, -0.0275106765, -0.0041108495, -0.0910799503, 0.0435753614, -0.1473339796, 0.0084746433, -0.0193499755, 0.0107026957, 0.0254016276, 0.0137125710, 0.0130209075, 0.0262647979, 0.0258978270, 0.0441253968, 0.0249629840, -0.0027866322, -0.0033610580, -0.0656514093, 0.0207048226, -0.0415779874, -0.0725566298, -0.2189165503, -0.0799745098, -0.0920979381, -0.1117154136, -0.1127448454, -0.1332210302, -0.0932966694, -0.1143186688, -0.1043497697, -0.1664712280, -0.1488496065, -0.1126696169, -0.1420049518, -0.1118158773, -0.2529875040, -0.2339459062, -0.2005849779, -0.2086949795, -0.1824299544, -0.1718878895, -0.2008717805, -0.1592212170, -0.1835353225, -0.1892659217, -0.1272763461, -0.1571813971, -0.0683062822, -0.1584627330, -0.2019615918, -0.0898317695, -0.1085195243, -0.1269633025, -0.1284107566, -0.1070258394, -0.1012917832, -0.1007026210, -0.1600585580, -0.0838832632, -0.1060065627, -0.0966450870, -0.1441560537, -0.1480643749, -0.1585881412, -0.1149938181, -0.0739006847, -0.1436762363, -0.1422063261, -0.1111795902, -0.1091109440, -0.1002519950, -0.0700043142, -0.1496251374, -0.1091509759, -0.0884252042, 0.0476978086, 0.0319988877, 0.0321734734, 0.0086628385, 0.0410579070, 0.1059419885, 0.1012260765, 0.0590588711, 0.0664080307, 0.0221649073, 0.1135977656, 0.0475523248, 0.0310290325, 0.0320426114, 0.0321910195, 0.0699102059, 0.0902714506, 0.0373820327, -0.0073975371, -0.0352005921, 0.0312142447, 0.0563359372, 0.0020947845, 0.0285999551, 0.0312983692, 0.1226912588, 0.1384388208, 0.1090572923, 0.1433209926, 0.1606915742, 0.1368549764, 0.1232105792, 0.0914104134, 0.1121521667, 0.1210055649, 0.1675384641, 0.1849174798, 0.1052636206, 0.1467576027, 0.1887283772, 0.1480212957, 0.1221122071, 0.0905922130, 0.1483221054, 0.1447416693, 0.0717706308, 0.1291275471, 0.0863019899, 0.1431515366, 0.1292875558, -0.1186001822, -0.1385990679, -0.0911414325, -0.0279962290, -0.0524693131, -0.1862104684, -0.1309382915, -0.1263130009, -0.0953679681, -0.1411855221, -0.1789676100, -0.1009244621, -0.1276159734, -0.1299959719, -0.1197815388, -0.1732047647, -0.0920946822, -0.1167958677, -0.0874187052, -0.1143686399, -0.1501761377, -0.1309149861, -0.0635547787, -0.0166658759, -0.0427000932, -0.1543557942, -0.1591776311, -0.1574324071, -0.1673351079, -0.1704954207, -0.1512775868, -0.1523363441, -0.1133413687, -0.1647075117, -0.1619675159, -0.2120024115, -0.2319240570, -0.1991732419, -0.2375779301, -0.2192054838, -0.1774349362, -0.1834295839, -0.1712307930, -0.2023941725, -0.1924770474, -0.1783362329, -0.1880001873, -0.1990147084, -0.2154696733, -0.2184155881, 0.2038847506, -0.0688399598, 0.0614591427, 0.1172333583, 0.0513191484, 0.0797097757, 0.1122468263, 0.0598756000, 0.0459730215, 0.1167995483, 0.1558844149, 0.1420801282, 0.0615143813, 0.1016238555, 0.1735787988, 0.1046237797, 0.0335364714, 0.0932701826, 0.0359939896, 0.0486127585, 0.0853985175, 0.0871821791, 0.0506249033, -0.0083228182, 0.0854044706, 0.0517613776, -0.0288985036, -0.0769321546, -0.0501119904, 0.0171674639, 0.1514115632, 0.0120882420, -0.0690862387, -0.0401826315, 0.0697326884, 0.1318283975, 0.0587575622, 0.0621012226, 0.1653632373, 0.3145578206, 0.0849084929, 0.0216452349, -0.0827413052, -0.1030561998, 0.0242903084, 0.1110612080, 0.0404316224, -0.0375316255, -0.0417198874, 0.0459097698, 0.0789734125, 0.1284701824, 0.0356401242, 0.0523672514, 0.0968062654, 0.0782226697, 0.0991974324, 0.0521049462, 0.0888277367, 0.0444941446, 0.1514268517, 0.1457735598, 0.1341864169, 0.1319982708, 0.1838132888, 0.0641392097, 0.0648998693, 0.0915817320, 0.0802842602, 0.1188808382, 0.1105671898, 0.0254229549, 0.1192359105, 0.1474531442, 0.0593967475, -0.0845111385, 0.2387218326, -0.4577704668, -0.2454847991, 0.1083583534, 0.0138485413, 0.0293040629, -0.0139811095, 0.0857304260, -0.1022407338, -0.0462542064, -0.1354871839, 0.0257915780, -0.0308561642, -0.0329441652, 0.1386338472, 0.0104244258, -0.0251334365, -0.1206920743, -0.0767167062, 0.2577430606, -0.4121834040, -0.2534817755, 0.0388250649, -0.0637706965, 0.0482736938, 0.0907089859, 0.0979060307, 0.0823931545, 0.0991509706, 0.0602829866, 0.0678675845, -0.0167995468, 0.0971902087, 0.0715408698, 0.1351510733, 0.0767322108, 0.0490873829, 0.1600391865, 0.1089657769, 0.0727277473, 0.0776028037, 0.1149403155, 0.1120064557, 0.0517497063, 0.1008652970, -0.0091437548, 0.0758830085, 0.0964012593, 0.1059148088, 0.0508262664, 0.1059958935, 0.0976978689, 0.0602184422, 0.0136153530, -0.0745991990, -0.0313703753, -0.0093586529, -0.0735443830, -0.1274294704, -0.0953499600, -0.0497846939, -0.0292454828, -0.0502643287, -0.0860426798, -0.0697372928, -0.0327754095, -0.0170520004, 0.0071150078, -0.0044157417, 0.1233999282, 0.1179221347, 0.1266178489, 0.1079407632, 0.1291648597
};

data_t cells_1_ops_by_node_0_1_op_1_weight[16][1][5][5] = {
0.0534723215, 0.0871780366, 0.1093544364, 0.1192162633, 0.0096934075, -0.0000536983, 0.0333287679, 0.0506063551, -0.0220095385, -0.1162193120, 0.2501692176, 0.3156894147, 0.1577086002, 0.0721428394, 0.1485158950, 0.1454283148, 0.3305272758, 0.2018356323, 0.0761750787, 0.0871014968, 0.0328241810, -0.0116861230, 0.0140845198, -0.0324459784, 0.0660668761, 0.1931547523, 0.0750381202, 0.1713467985, 0.0123266149, -0.0706624612, 0.0165963657, -0.0169016030, -0.0893035457, 0.0544548221, -0.0206974298, 0.0998700336, 0.0130368564, -0.0403838530, 0.3182094097, 0.0585037693, 0.1448130608, 0.2243613750, 0.1195738986, 0.2312214375, 0.0747653022, 0.0800026357, 0.0147423288, 0.0220803618, 0.0137081835, 0.0064704283, -0.1602876633, -0.1486083567, 0.0527381226, 0.2135306448, 0.1827182025, 0.1649006009, -0.1155306324, -0.1104782075, 0.0715762824, 0.0135568520, -0.1376063973, -0.1032758877, 0.1671752334, -0.1648776382, -0.4452565610, -0.1925011575, -0.1643138826, 0.0959612355, 0.0041199499, -0.2433846146, 0.1125855744, -0.1016964912, -0.1130412072, 0.1062020734, 0.0263022203, -0.1601533890, -0.1266111135, 0.0010170802, -0.0304650404, 0.1236922294, -0.0295447614, -0.0300348308, -0.0555745177, -0.0067616282, 0.0186307114, -0.1928492486, 0.3780286014, 0.2086517066, -0.0288217198, -0.2917183340, -0.3757116795, 0.1971333325, 0.2562248111, 0.1322045922, -0.0853607431, -0.0522959940, 0.0868300349, -0.0126958443, -0.0178044606, -0.1065805629, -0.0676693320, -0.0695199594, 0.0095682619, -0.0660236776, -0.1811269671, -0.0803604797, -0.0995343253, 0.0101607498, -0.0076899203, 0.0225132778, -0.0673797280, 0.0853677318, 0.1857559085, 0.3008435965, 0.0081732590, 0.2216560692, 0.1742282510, 0.1558301002, 0.0217961967, -0.1381164342, -0.1242232248, -0.1553448737, -0.1469937265, -0.0672474131, -0.1128717437, -0.0162787065, -0.0756491944, 0.0119164195, 0.1310217530, -0.0182783511, 0.0118508879, -0.1176684946, -0.0225326866, -0.0262252968, 0.0995482802, -0.1955298334, -0.1365855634, -0.1500858814, -0.2120814323, -0.2153277546, -0.0737191066, -0.2388585210, -0.0969583988, -0.0725919306, -0.1173563972, -0.0719360113, -0.0548464507, 0.0100849522, 0.0022112776, 0.0565497950, -0.1794707179, -0.0536007322, -0.1450943947, -0.0927849486, -0.0546287298, 0.0981769338, 0.0445475020, -0.0501023233, -0.0607615151, 0.0278187171, 0.0756553411, -0.2340060174, -0.4662098587, -0.2476927489, 0.2790846229, -0.0650255010, -0.1180887073, -0.3876197934, -0.3696252108, 0.1501702666, -0.0788521394, -0.0526165180, -0.0015150615, 0.0283499639, 0.0211738497, -0.0797630474, -0.0952183008, -0.0549602844, -0.0297662206, -0.0837013423, 0.0060723745, 0.0460604131, 0.1206957176, 0.1108099669, 0.0017893938, 0.2329810709, 0.3049007952, 0.3048149645, 0.3742919266, 0.1573452204, -0.0357620381, -0.0240706950, -0.0703488216, -0.2079257816, -0.1984539628, 0.0821465328, -0.0285466928, -0.0194018204, -0.0720539317, -0.1441336572, -0.0923719332, 0.0372759812, -0.0133067928, -0.0688801035, 0.0209400207, 0.1334413290, 0.0475819148, -0.0853492990, 0.0853409618, 0.0445874967, 0.2796083689, -0.3184420764, 0.0959874913, 0.1466831118, -0.3298620284, 0.1536592394, -0.3029930592, 0.1215192601, 0.2199700177, -0.1628409326, 0.1235075668, -0.1232096329, 0.0505768210, 0.0122680804, -0.0442534275, -0.0939287543, -0.0436710604, -0.0011598719, -0.0174364205, -0.0219015237, -0.0018226567, 0.0164606292, -0.0359780751, -0.0595322214, 0.0731572285, -0.1091178954, -0.1868986785, -0.1859708428, -0.1462582499, -0.1605762094, -0.2268526554, -0.2240659595, -0.1437356323, -0.2715881169, -0.2480731755, -0.0602298304, -0.0436127633, -0.0529534034, -0.0305970889, -0.1314117163, 0.1127542257, 0.0925262496, 0.0232583974, 0.0640504956, 0.1034780443, 0.0004981894, 0.0634711012, 0.0697254688, 0.1040819660, 0.0266686175, 0.0744743869, 0.1893859357, 0.1694590449, 0.1171780527, 0.0515282825, 0.2018671185, 0.2470545918, 0.2901060879, 0.3126257956, 0.1203812882, 0.1287376136, 0.1204899773, 0.0875807926, 0.1261698008, 0.0853901654, -0.0988141000, 0.0226069540, 0.0599665232, 0.0328739323, -0.0736722797, 0.0468029752, -0.0559400991, 0.0446996354, 0.0880528092, 0.0368231386, -0.0786606669, 0.2489553988, 0.2757627666, -0.3040863574, 0.0593512096, -0.0412732810, 0.1157395318, 0.3040142655, -0.1785591245, 0.0545358881, -0.0207516775, -0.0323430710, 0.0441751517, -0.0638575554, 0.0057751969, -0.0637315959, -0.0832112134, 0.0373181030, -0.0278785322, -0.0780948848, -0.1159644574, -0.1169718280, -0.0522253476, -0.1138314903, -0.1519211680, -0.0939273313, -0.0770007372, -0.2349191010, -0.1510578990, -0.1582280099, -0.1703719646, -0.1725819260, -0.1263094395, -0.1511144191, -0.0935631692, 0.0777705312, -0.0387974307, 0.0463659875, 0.0165156797, -0.0188229997, 0.1706202030, 0.1700499952, -0.1572714299, -0.1881547868, 0.0669946969, -0.0700957850, -0.0065582311, 0.0132204071, -0.0586621240, 0.2388339192, -0.0451218411, -0.5017473698, -0.2176316530, 0.3461905122, 0.5682869554, -0.0151032032, -0.5532724261, -0.2026258558, 0.4135587811, 0.5679091215, -0.0701491982, 0.0412777774, 0.0832932219, 0.0491854288, -0.0493633598, 0.0897759721, 0.2347435802, 0.1057761535, -0.0465088487, -0.0243988242, -0.1054967567, 0.0072543127, -0.1114007682, -0.1278266162, 0.0881772116, 0.1217799410, 0.1423136145, -0.0765172392, 0.1487852335, 0.1439887434, 0.1987676024, 0.1283609569, 0.1658374369, 0.1737578660, 0.0759067386, 0.0783267617, -0.0047623147, 0.0417842977, 0.0196253471, -0.0186022073, 0.1037501171, 0.1089226082, 0.0643454269, -0.0047163679, -0.0004429665, -0.0167552549, 0.0608850718, 0.0775285289, 0.0760864988, -0.0431747623, 0.1842321157, 0.3401772678, 0.1630049944, 0.1431859881, 0.0877070352, 0.1924568117, 0.3223707378, 0.2028335929, 0.1837256551, 0.0364217199, 0.0196273923, 0.0190464240, -0.0075709722, 0.0003973684, 0.0902115777
};

data_t cells_1_ops_by_node_0_1_op_5_weight[16][1][5][5] = {
-0.0506561771, -0.4465877414, 0.1927610785, 0.0947358087, 0.0007060919, -0.0653778985, -0.1900235415, 0.0952721015, 0.0306280348, 0.0379154421, 0.1560904384, 0.1148977280, 0.1008133665, 0.0502026230, 0.2046002299, 0.0171339400, -0.0729671419, 0.1676369309, 0.0011336439, -0.0896648243, -0.5034771562, 0.1987219453, 0.2426278293, 0.0568167306, -0.0709117651, 0.1288282573, 0.1400252581, 0.0263168458, 0.0493575595, 0.0384318046, 0.1047814637, 0.0485761575, 0.0633311123, 0.0906559452, 0.1215038747, 0.2050182819, 0.1571637392, 0.0851515234, 0.0652892515, 0.0559180230, 0.1415288597, 0.0793261081, 0.0082505159, 0.0880495757, 0.0778707638, 0.1301019341, 0.0540032387, 0.0900962651, -0.0616810173, 0.0749171376, -0.0307318252, 0.0318979248, 0.0041791145, 0.0301530268, -0.0392595567, 0.1428797990, 0.0229270644, -0.0685638264, 0.0257761125, 0.1297214329, 0.1776534468, 0.0932962820, 0.1906542033, 0.2404849529, 0.0436840653, 0.0380410403, 0.1231225058, 0.0649807751, -0.0181067679, 0.1774917841, 0.2207791209, -0.0507486761, -0.0278841462, -0.0295432080, -0.0208255071, 0.0289549269, 0.1003917977, -0.0493790396, -0.1681083739, 0.1971102506, 0.1494014561, -0.0080443118, -0.0336119011, 0.0162425824, 0.1383858770, 0.1099814102, 0.0284204353, -0.0059019909, 0.0949256122, 0.4625795782, 0.1589708477, -0.0264801458, -0.0320277363, 0.0543989651, 0.0208681934, 0.1598085314, 0.0893574730, -0.1566125154, 0.2363787144, 0.0764720291, -0.1647768319, 0.3378580809, 0.3159773946, -0.2111037523, 0.0753467083, 0.0115594035, -0.1543520540, 0.1028638557, 0.0465560295, -0.2831574678, 0.0800371543, 0.0058697686, 0.1399483532, 0.1100254431, 0.1018405333, 0.0502963625, 0.0960151777, -0.0975399017, -0.0086780349, -0.1087796167, 0.2101001292, 0.2511799932, -0.2106252611, 0.0223048571, -0.1901427805, 0.0941355452, -0.0007565853, 0.0149136065, 0.2566585839, -0.7302150726, 0.0004174372, -0.0633553043, 0.0352609754, -0.1014798731, -0.0318112373, 0.1087302119, -0.0555785112, -0.0221164748, -0.0164884981, -0.0070865010, 0.1290696263, 0.0079684164, -0.0661238730, -0.0072255922, -0.1151044071, 0.0437306464, -0.0163553525, 0.2404316664, -0.7594300508, 0.0760896131, -0.0612930618, 0.0046197008, -0.0874077156, -0.0032599007, -0.0200219303, -0.1328737289, -0.1190699786, 0.0007138368, -0.0871028453, -0.1240590811, -0.1924927235, -0.1721935719, -0.2516874671, -0.2115417123, -0.2175514251, -0.1124795079, -0.0377833173, -0.1775472164, -0.1913110614, -0.1102552861, 0.0021476247, -0.0362235904, 0.0860627517, -0.0980818197, -0.0499808937, 0.1127190962, 0.0153863318, -0.0265175365, 0.0240202639, 0.1418211460, 0.0845884234, 0.0433065258, 0.0575391576, -0.0276894607, 0.0985653847, 0.1787558794, 0.1575936377, 0.0720327049, 0.0526599810, 0.2241871059, 0.0754805431, 0.0884383172, 0.0214285459, 0.0035431602, 0.0275535267, 0.0568252429, -0.0074728467, 0.0290201884, 0.0581252724, 0.0622279532, -0.0148615753, 0.0238108765, -0.0041090548, 0.0626722202, 0.0593088940, -0.1925417632, -0.0201359149, 0.0868537948, 0.1148587763, 0.0270485245, 0.2820039093, 0.2358678728, 0.0802777708, 0.0973242298, 0.2086549848, 0.1260894090, 0.0399952680, 0.0393779092, 0.0645032898, 0.0829939619, 0.0299755819, 0.0461755656, 0.0666872412, -0.0031177490, -0.1473170817, -0.0205933433, -0.0900660455, -0.0883845687, -0.1364171803, -0.1522915661, -0.0672677010, -0.0497068018, -0.0016461693, -0.0553583466, 0.1146060899, -0.1712429225, -0.1720462441, -0.1372251958, -0.1483491659, -0.1888644844, 0.0695112869, -0.0502978340, -0.0333580561, 0.1507792920, 0.0908166319, -0.1133742332, -0.1257759780, -0.0783858746, -0.0302018616, -0.0451597236, -0.0656687096, -0.1529327929, 0.0580261610, 0.1798158586, -0.0967304781, -0.0168619081, 0.0806074366, 0.1287570596, 0.0532721840, 0.1881241351, 0.3125150800, 0.2861113250, 0.1801804006, 0.1465684325, 0.2413066030, 0.0276115425, 0.3271225989, 0.2753507197, 0.0413693562, 0.0922253653, -0.0864577666, 0.0552435890, 0.0956463069, -0.1013864502, -0.0886552855, 0.0572984479, 0.6061422229, -0.1712914109, -0.0558427013, -0.0077531212, 0.1449084282, -0.0582845174, -0.0333729759, -0.0554796644, -0.0438536666, 0.0586447343, -0.0154698938, -0.0249725077, 0.0550373234, 0.0042450936, 0.1044036970, -0.0624570847, -0.0889826715, 0.0467662029, -0.0547428615, 0.6173414588, -0.1204292476, -0.0518279411, -0.0210586805, -0.0173984170, 0.1191108972, -0.0270143058, -0.2277785838, -0.0063719093, -0.3583586812, 0.0231409073, 0.2751760483, -0.0773929656, -0.0453750677, -0.0165788103, -0.3113327324, -0.1105889827, -0.1350935847, 0.0844591260, -0.4601513445, 0.2415053397, -0.0610287562, -0.1156686768, -0.0941902846, 0.0054023666, -0.0682779253, -0.2569845915, -0.0994650796, -0.2749013901, 0.2318892181, 0.1596370190, 0.1985373348, -0.0237015504, 0.0216545835, 0.3165500760, 0.0245860647, -0.0205125473, 0.0312496386, 0.0335459746, -0.0379236341, 0.0600942038, 0.1214943007, 0.0207725447, 0.0611639805, 0.1649078578, 0.0232185144, 0.0464845188, 0.0399994515, 0.0514000617, 0.0075754505, 0.2540174425, -0.0245548282, -0.0165307932, 0.1394709200, 0.1796630472, -0.2309093624, 0.0310519133, -0.0041863220, -0.1080725864, -0.0971470624, 0.3519091904, -0.0345306322, 0.0442807004, 0.3185712695, -0.1627360433, -0.2778380513, 0.2372632176, 0.0067867986, -0.1981478781, 0.2075192034, -0.0085882312, -0.1813562661, -0.0606975444, -0.0197152402, -0.3097138405, -0.1568983644, 0.0131506408, 0.0067923442, -0.2089512348, 0.1500076056, 0.0442249067, 0.0368332453, -0.1350465268, -0.1887048334, -0.2456358224, -0.0143632153, -0.0962376371, -0.0292183086, -0.0695305169, -0.0874245241, 0.0350158326, -0.0221973937, 0.0731966794, 0.0928114727, -0.0399370268, -0.0504767224, -0.0447250344, -0.0975817814, 0.0034610608, 0.0066728257, 0.0721328408, -0.1785612702, -0.2434358895, -0.2282876223, -0.0737579092
};

data_t cells_1_ops_by_node_1_0_bn_bias[16] = {
0.0987920165, -0.1974050850, -0.1136105135, -0.1415430754, -0.2088019699, -0.0198280215, -0.2647028863, -0.2905012667, 0.1027301252, -0.0736546218, -0.0424385443, 0.0949447677, 0.1097072512, -0.0307716839, 0.0508827530, -0.1094661951
};

data_t cells_1_ops_by_node_1_0_bn_running_mean[16] = {
0.0087662693, -0.0300261993, 0.0110379327, 0.0901242420, -0.0078203976, -0.0770486593, -0.1423824579, 0.0265901592, 0.0991302878, 0.1080666557, -0.6889949441, -0.0020204142, 0.0306745917, 0.0895704255, -0.1746234000, 0.0175708570
};

data_t cells_1_ops_by_node_1_0_bn_running_var[16] = {
0.1945865601, 0.0174566191, 0.0345668942, 0.0116243660, 0.0490031913, 0.0391017459, 0.1233892664, 0.0775758773, 0.0178435221, 0.0299514495, 0.2085719854, 0.0119327419, 0.0059059625, 0.1292104423, 0.0547223464, 0.0128264558
};

data_t cells_1_ops_by_node_1_0_bn_weight[16] = {
0.7553035021, 0.0646760315, 0.6998220682, 0.0549561568, 0.5878783464, 0.5400257707, 0.7243128419, 0.5169549584, 0.2883377373, 0.5323344469, 0.7536716461, 0.0867525712, 0.1252904236, 0.5871090889, 0.1680444628, 0.2034037709
};

data_t cells_1_ops_by_node_1_0_conv1_weight[8][16][1][1] = {
-0.8939051032, -0.1447953731, -0.1597500890, -0.3336188197, 0.0183895957, 0.5344490409, 0.0003709644, -0.0083126007, 0.1737294197, 0.2447699159, -0.2592243552, -0.6237628460, 0.2561618984, 0.3272237480, 0.1533930153, 0.3753611445, -0.0921370760, 0.1775194705, -0.1903897077, -0.0495780446, 0.1751181632, -0.1829476506, -0.0361054800, -0.0251050144, -0.1468242258, 0.2028539777, 0.0256002788, -0.0431693904, -0.0026357737, 0.0322766900, 0.0364752524, -0.0012111968, -0.1231249422, 0.0639623404, 0.0215602163, 0.0660175979, -0.1217183769, 0.1041959524, -0.0345334932, 0.1893724203, 0.0775977671, 0.1199183092, -0.4191658199, -0.1171191707, -0.0344134048, 0.0197206102, -0.0142925875, 0.2344997376, 0.0638135970, -0.0079449005, 0.0472079366, 0.1202216744, 0.0025231827, 0.0102388030, 0.0952645242, 0.1428339630, 0.0448530726, -0.1946058571, 0.1067964137, -0.0407054722, -0.0015103802, 0.0256814249, 0.0676974580, -0.0244980231, -0.0106802424, 0.5050168037, -0.1513426453, 0.0237211715, -0.0335114561, -0.0600380898, 0.1591238230, 0.0437725559, 0.2353296429, -0.0908916742, -0.0262449533, -0.4097706378, 0.0179546308, 0.0271999836, -0.0989735350, 0.0251917969, 0.2135811746, 0.0994859934, 0.1689335555, -0.1361059994, 0.0526237227, -0.2211850882, -0.3309387267, -0.0426910706, -0.0020276522, 0.0743812695, 0.0420990139, -0.0560701266, -0.2115004212, 0.0994972810, 0.0522198230, 0.1258009672, -0.3227099180, -0.1060606763, -0.0930453688, -0.1171054170, 0.0444707349, -0.1238965467, 0.2702071965, 0.0046841833, -0.0645463169, 0.0907322243, -0.1727599055, -0.3360067606, 0.0935775489, -0.0334275439, 0.6687754393, -0.3305105269, -0.0263554510, -0.0340657718, 0.1534251422, 0.0355087556, 0.1620691717, 0.1555477083, 0.0545257330, 0.2703152895, -0.0200533122, 0.1384099573, -0.3769685328, 0.1702208370, 0.3685460985, -0.2232377529, 0.1548479944, -0.2510987818
};

data_t cells_1_ops_by_node_1_0_conv2_weight[8][16][1][1] = {
-0.0103675742, 0.0672166571, -0.0340653919, -0.0906550884, 0.0026163126, 0.0245558824, -0.0221845768, -0.1048361957, -0.0925352946, -0.0765861198, 0.0414696075, 0.2891449332, 0.1138086617, 0.1010709032, 0.0661253780, -0.0103287315, 0.2504864931, 0.0949125215, -0.0972276777, -0.2431868613, 0.0833885968, -0.0780439898, 0.1946701705, -0.0246904157, 0.0644318983, -0.0628497154, -0.0042073838, 0.2634573579, -0.1265299469, 0.1107054055, 0.0704395473, 0.0101333400, -0.2265861928, -0.0118991397, 0.3995979428, -0.6836323142, 0.0318142511, 0.2667458653, -0.5453915000, 0.0636498854, -0.1248770654, -0.0785614252, -0.0199762825, -0.2350142300, 0.3454172909, -0.8285202384, 0.0955397785, -0.4611037374, 0.0931778699, 0.0040537366, 0.0925766230, -0.0197365228, 0.1115092933, 0.1918716133, 0.0001531052, -0.2020702511, -0.1385044903, 0.0659341589, -0.0523325354, 0.0042976122, -0.0760841444, 0.0145045510, 0.0892999694, -0.0706383362, 0.0258223768, 0.1165121719, 0.0410994254, -0.0084789041, -0.0345120952, -0.0242608432, 0.0553408489, -0.0184889194, 0.1154978350, -0.0487891361, -0.0152855935, 0.0709103942, 0.0908411816, -0.0456184447, -0.0756692067, -0.0375413075, -0.2567720115, 0.1093009636, 0.2759016156, -0.5278618932, -0.0703819320, 0.3329085410, 0.3367849886, -0.0414985828, -0.1382597089, 0.2834409773, -0.0592681654, 0.0948127061, 0.4328972697, 0.1107329652, -0.4272371233, -0.0826005116, 0.1367815882, -0.2251117080, 0.0982529223, 0.0849820450, -0.0447321534, 0.0861121118, 0.1220040619, -0.1585425586, -0.1492929608, 0.1385982335, -0.0472995378, -0.1480791569, -0.3648403287, -0.1607223749, 0.0385959856, -0.1604083478, -0.1299523562, 0.0254682936, -0.0517066531, 0.0912434757, 0.0253934283, -0.0806793496, 0.0611858219, 0.0164250564, 0.0799561292, 0.2097913325, -0.1258610934, -0.0313468128, -0.1695508063, 0.1315259933, -0.0329490453, -0.0120526170
};

data_t cells_1_ops_by_node_1_1_op_1_weight[16][1][5][5] = {
-0.1388752013, -0.1239239350, -0.0891031176, -0.1109145731, -0.1664853394, -0.1048097312, -0.0348442383, 0.0285148825, 0.0318098441, -0.0839983970, -0.0899631083, 0.0302879941, 0.0111057311, -0.0139034037, 0.0026359931, -0.0170611553, -0.0203340724, -0.0150113329, -0.0107516870, -0.0717524886, -0.1944997162, -0.0960965082, -0.0278348997, -0.1155784428, -0.1198036522, -0.1391110271, -0.0802334100, -0.0659792423, -0.0528677106, -0.1499387622, 0.0504412912, 0.0568319745, 0.0383079611, 0.0607011132, 0.0053110356, -0.0703399479, 0.0026432357, 0.0087343836, 0.0963736400, -0.0331686474, -0.0439791530, -0.0161009599, -0.0144688906, -0.0098562315, -0.0875088871, -0.0772356763, -0.0622733422, -0.0386042036, -0.0411855206, -0.1202670634, -0.1245535836, -0.0334512442, -0.0267828796, -0.0306553170, -0.1474694014, -0.1096660644, -0.0396755002, -0.0390104018, -0.0235421099, -0.1055751890, -0.0088096242, -0.0047264779, -0.0438577682, -0.0180273615, -0.0388805717, 0.0184946209, 0.0229403414, 0.0162857119, 0.0333935320, -0.0123245642, -0.0856496394, -0.0880280733, -0.0463369563, -0.0969318748, -0.1175765917, -0.1257390082, -0.1300988495, -0.1396458000, -0.0724541023, -0.1443471164, 0.0948413759, -0.0277715828, 0.0200865623, 0.0881291032, -0.0426537469, 0.0938784257, -0.0060162116, 0.0145872338, -0.0022872395, 0.0350254253, 0.0948749408, 0.0757128149, 0.0842954665, 0.0957495049, 0.0602785274, -0.2383824736, -0.2116486281, -0.1815977693, -0.1514525115, -0.1976640522, 0.0225320943, 0.0403169878, 0.0060250536, -0.0014882076, 0.0479430780, -0.0193170812, 0.0075037214, -0.0423934273, -0.0422920398, -0.0378050618, -0.0731405243, -0.0546258241, -0.0778385997, -0.0175299626, -0.0956801623, -0.0086254468, -0.0328667238, -0.0532323383, -0.0118895266, -0.1048819870, 0.0508147664, 0.0155415498, 0.0035720633, 0.0583517738, -0.0462334976, -0.1360111088, 0.0168262608, 0.0653118789, 0.0240231752, 0.0787415355, -0.1257042438, 0.1114756614, -0.0848326683, 0.0269703120, 0.0691435412, -0.0841685906, 0.4418063164, 0.6352323294, 0.2314788699, -1.1518572569, -0.1005273387, -0.0051447130, -0.1170686930, 0.0765762255, 0.1412259340, 0.0244025718, -0.1172513962, -0.1917432398, -0.0663089305, 0.5209522247, -0.0891355053, -0.1200466529, -0.1719623655, -0.1831549257, -0.1813551337, -0.0170340780, -0.0910064951, 0.0890038088, 0.0964942351, 0.0286149792, 0.0697222576, 0.1147360355, 0.0880698338, 0.0561118498, 0.3171120584, -0.0359292068, 0.0081399428, 0.1021018401, -0.0283684470, 0.1656154692, -0.1009677798, -0.2274789512, -0.2443436682, -0.2376269847, -0.1700796634, 0.1285525262, 0.0153735504, 0.0281254016, -0.0166351143, 0.0796623304, 0.0491801612, -0.0299236346, 0.0024685408, -0.0275786761, 0.0801243559, 0.0071032662, 0.0225119404, 0.0081934249, -0.0434489623, -0.0122022256, 0.0280445628, 0.0106468350, -0.0055353912, 0.0345215127, 0.0472854525, 0.0893519595, 0.0110016232, 0.0188109428, 0.0009661760, 0.0165438838, 0.0435029678, 0.0639797822, 0.1040692925, 0.0570551641, 0.0510272868, 0.0344734192, 0.0082462551, -0.0002502707, 0.0024653946, 0.0261833873, 0.0515720844, -0.0154402610, -0.0320445336, -0.0293199196, -0.0030988008, 0.0098473653, -0.0020716991, -0.0248601325, -0.0043496378, 0.0094131418, 0.0744440854, 0.0720465109, 0.0751394331, 0.0776705295, 0.0822949484, -0.1239051819, -0.0148394322, 0.0503031537, 0.1766473651, -0.0901625976, -0.1134564504, -0.0307367798, 0.0585946217, 0.1123350784, -0.0989664122, -0.5070633888, -0.3842594922, 0.0982929841, 0.4693779945, -0.0831338242, -0.0065335981, 0.0245379601, -0.0993572176, -0.1050512195, 0.0599023104, -0.1035127267, 0.0427350402, 0.0246037133, -0.1258936822, 0.2385080457, -0.1742061526, -0.0374750979, 0.3004565537, 0.0519909449, -0.2095538676, -0.1628230959, 0.0789540932, 0.2116385102, 0.1439965814, -0.1060692593, -0.2785903811, 0.0167166628, 0.0470240340, -0.2440119237, -0.3214093149, -0.0894561782, 0.0465539917, 0.0758762285, -0.0158623215, -0.0461558141, -0.0165930968, 0.1125760078, -0.0395254865, -0.0921603665, 0.0904271752, 0.0875625387, 0.1834397763, 0.2257708013, 0.0648361892, 0.0880383924, -0.0134727443, -0.0220599398, 0.0007395829, 0.0387175195, -0.0137610491, 0.0761231333, -0.1091244966, 0.0284419917, -0.0840856880, 0.0858565643, 0.1211612970, 0.0327900909, -0.0295685418, -0.0293734185, -0.0154218897, 0.1038472876, 0.1525575817, 0.0709341690, 0.1288083792, 0.0143391425, -0.1261176020, -0.0813158080, -0.0370848291, -0.0557367429, -0.1026678607, -0.0736218542, -0.0151108606, -0.0112033524, 0.0032579210, -0.0442634486, -0.0154638281, 0.0306722801, 0.0445038080, 0.0360400043, 0.0070785470, -0.0104275309, 0.0031917284, -0.0131631494, 0.0047405143, -0.0179871172, -0.0685337111, -0.0445175692, -0.0946117416, -0.0855926424, -0.0797439665, 0.0653847829, 0.0050314222, 0.0294995960, -0.0482126176, -0.0387853682, 0.1340152621, -0.0897349492, 0.1129469424, -0.1129949018, -0.0049074222, -1.1471593380, 0.4002424777, 0.1329149604, 0.2767875493, 0.2095997930, 0.0792936981, 0.0747610182, -0.0403463915, -0.1173368692, -0.1326318830, 0.2285723835, -0.1754359305, -0.0116320867, 0.1412290037, -0.0932951570, -0.0883724168, -0.0153808510, 0.0281460490, 0.0065711518, -0.0355578549, -0.0464872830, -0.0316886231, 0.0605195612, -0.0101325084, 0.0039901743, -0.1812517196, -0.1217401028, -0.0628374591, -0.0976831838, -0.0550026335, -0.1022874713, -0.0112669952, -0.0240641367, -0.0729738772, -0.0822411403, -0.0290324930, 0.0586405285, 0.0290872958, 0.0299909301, -0.0421385206, -0.3596799076, 0.0811324939, -0.0868843570, 0.2454374135, 0.3567785919, 0.3201848269, 0.5264927745, -0.1240063533, -0.2764245272, -0.4545922875, -0.9998594522, -0.4400777817, -0.3138942420, 0.7988330722, 0.9895235896, 0.2491521984, 0.3201253712, -0.1802321672, -0.2423226982, -0.1612858176, 0.0093425857, -0.2477434278, 0.1216818094, 0.0668122545, 0.2610674798
};

data_t cells_1_ops_by_node_1_1_op_5_weight[16][1][5][5] = {
-0.1218959615, 0.0281843524, 0.0513201468, 0.0246478785, -0.1113501936, -0.1480341107, 0.0847069845, -0.0641101375, 0.0586239807, 0.1651890129, 0.0778187141, 0.1053070128, -0.1193959638, -0.0384794958, 0.3905552030, -0.0229971763, -0.1093161255, -0.0721403509, 0.1069667190, 0.3073649108, 0.0473546982, -0.0620985217, -0.0511247925, -0.0526230261, 0.0052822619, 0.0559973754, -0.1215874180, -0.0065559344, -0.1399024576, -0.1591631472, -0.1437484473, -0.2101384997, 0.0119673675, -0.0701990798, -0.0473860130, -0.0892648846, 0.1573612988, 0.0155734103, 0.0537351593, 0.0632565171, -0.0343757495, -0.0078088441, -0.1414631605, 0.0058881817, 0.2121684700, -0.1616343707, -0.2160012722, -0.1812442839, -0.1960280389, -0.1940206289, 0.1079885811, -0.1139017418, 0.0872802287, 0.0812169462, 0.0943844467, 0.2279433012, -0.1647918373, 0.0965934321, -0.0776883513, 0.1658282131, 0.1866215020, 0.0135824699, 0.0745653808, -0.0605662279, 0.0410521366, 0.0645677969, -0.0003968430, -0.0029119384, 0.0603925884, -0.0283664390, 0.1024911106, 0.1336710900, 0.0876661167, 0.1311651319, -0.0314774327, -0.3032184541, 0.0262100324, 0.0411966778, 0.0516047776, -0.0671737343, -0.3844177723, 0.1679027379, 0.0246167313, 0.0974370465, 0.1675484329, -0.2069124728, -0.1656766534, -0.1938474923, 0.0924252495, 0.4893215895, -0.0999303386, -0.2183241397, -0.1144619063, 0.0677664801, 0.2025167346, 0.0274410788, -0.1210852414, -0.1167184114, -0.0712944642, -0.0202389061, 0.0674114153, -0.0698138997, -0.1652884483, -0.0623250604, 0.0936893001, 0.0196342766, -0.0037669751, -0.0251119435, -0.2180850953, -0.0796374232, -0.0743569285, 0.1047523394, 0.1348620951, -0.0440989025, -0.1081496924, -0.0779395774, 0.1380130649, 0.2050502896, 0.0567164607, -0.0872620791, -0.2007765323, -0.1258608252, -0.0365578420, -0.0658697560, -0.2241236418, 0.1698490679, -0.1315493882, -0.0530637093, -0.0974894017, 0.2146518677, 0.1824624985, 0.0396955535, 0.0450124629, -0.0226987302, -0.0581082888, 0.1632741988, 0.0923797414, 0.1109325811, 0.1886876374, -0.3952612281, 0.1040450037, 0.0871401429, 0.0916185752, 0.0134452097, -0.0634717718, 0.1216765791, 0.0608743653, 0.0095075164, -0.1636281163, -0.1230220720, -0.1893693507, -0.1976122409, -0.0065625664, -0.0647888631, -0.1394814700, -0.0291383751, -0.2068773061, -0.0176560357, -0.0887776315, 0.0391177796, 0.3386918902, -0.1083599553, -0.0441909023, 0.0081634857, 0.0544923842, 0.0886153132, -0.1911884248, 0.1100208834, -0.0151054030, 0.0056439037, -0.1868780255, -0.1588083357, -0.0092690578, -0.0826114640, -0.0921335444, 0.1374880373, -0.1471516341, -0.0697432980, 0.0829163641, -0.1476145834, 0.1898521185, 0.0178677402, -0.0540902019, 0.0121221310, -0.1997170150, 0.0928094238, 0.4415268898, 0.3199063838, -0.0900244266, -0.6432797909, 0.0103138946, 0.1756270081, 0.0546513014, -0.0586997047, -0.1745927930, 0.0933383778, -0.0507594198, 0.0090809930, -0.1600427330, -0.1629077196, 0.0362958871, 0.1340020001, 0.0562392995, 0.0792296976, 0.0512583032, 0.0593770295, -0.0075859316, 0.1251015067, 0.1422066242, 0.1768610626, -0.0455878787, 0.1293828487, 0.0580634400, -0.1476702392, 0.1806575209, -0.0409331545, -0.0203224216, -0.0198846739, -0.0700846538, 0.1020237356, 0.0532177053, 0.0720381513, 0.0986560062, 0.2262764871, 0.2041242570, -0.0663895458, 0.0773926228, -0.0817044154, -0.0377026722, 0.4789217710, -0.1062425449, -0.0255832747, -0.3413784802, -0.2517562807, 0.1056972221, -0.0274377093, 0.0376787819, 0.2910747826, 0.5774544477, -0.4214041233, 0.0035269635, 0.1562284082, 0.2810166478, -0.1412725747, -0.0169457681, 0.1318133622, -0.0555419438, 0.1324382126, -0.2690493166, -0.1399007291, -0.0561180376, 0.0451401919, 0.0250407960, 0.0086847581, -0.1473408341, -0.0135785686, -0.0566538051, 0.0352370553, 0.0166708920, -0.1437415332, -0.0526636429, -0.1791383773, -0.1387052387, -0.0728365779, -0.0658579767, 0.0415819436, -0.1294575632, -0.0639830157, -0.0174778290, -0.1387085766, -0.0877575055, -0.0314755961, -0.0552657023, -0.0022285508, 0.0109520406, -0.1442228258, -0.0656321943, -0.1091021821, 0.0530275218, -0.0254175272, 0.0144608365, 0.0195782632, 0.0203320477, -0.0356019177, -0.0343773887, -0.2666002512, -0.0627114326, 0.1760962456, 0.0635422915, -0.1902510375, -0.2040507644, -0.0252544656, 0.1567148715, -0.0694356933, -0.0163116604, -0.1454214156, 0.0351209268, 0.0611467659, -0.1448339820, -0.0735144690, 0.1225359663, 0.0731718317, 0.0021821153, 0.0199799743, 0.0844800621, 0.1407984644, 0.0644060001, 0.0439991914, 0.0582350679, 0.0991581455, 0.1058840454, -0.0134529620, -0.0476605482, -0.0579500943, -0.0521105640, 0.1327565461, 0.0565365553, 0.0091731716, 0.0372754000, 0.0502383783, 0.1356592029, 0.0640594512, 0.0103918910, 0.0375536531, 0.0586928092, 0.1590889245, 0.0678836480, 0.0118703591, 0.1331704259, 0.1674863547, 0.1604177952, 0.0550125092, 0.0589281544, 0.0300820265, 0.1798035502, 0.1868600249, -0.0379853621, 0.0779441819, 0.0041080345, 0.1908496469, 0.2337683588, 0.0085074250, 0.1379601359, 0.1004000157, 0.1691023260, 0.2550780475, 0.0600200295, 0.0612855442, 0.1126784161, 0.2192576379, -0.0357692242, -0.0663362294, 0.2327305079, 0.0331900790, -0.2665556669, -0.0772825330, -0.2623099983, 0.1608017534, 0.2288757414, 0.2166603059, 0.3170493245, 0.1738767028, -0.2316843271, -0.3939540982, 0.1967537105, 0.2408946306, -0.0479463972, -0.1622222513, -0.0115802875, -0.2311630696, -0.0512075424, -0.0578665659, -0.2362579256, 0.4138984680, 0.0599057153, 0.0671699271, -0.0395339653, 0.0494650342, 0.0309696589, 0.1514524668, -0.0483417399, 0.0168556646, 0.0845322087, 0.0752893463, 0.1135684252, -0.0178981218, 0.1118226722, 0.0776017830, 0.3253131807, 0.1706863940, 0.0282323118, 0.0766231492, 0.0537884384, 0.1566806287, 0.1421610117, 0.0848261937, 0.0213854816, 0.0309443232, -0.0854777247, -0.0141602997
};

data_t cells_1_ops_by_node_2_0_op_1_weight[16][1][3][3] = {
-0.0933799595, -0.0731421560, -0.1127540767, -0.2794657946, -0.2211654633, -0.3012037873, -0.1207743064, -0.0838893950, -0.1402415633, -0.1107796207, -0.0413593128, -0.0625790358, -0.1689931452, -0.0781082362, -0.1420776397, -0.1771277636, -0.1161749363, -0.1828814745, 0.2504204810, 0.1435691416, 0.2217610329, 0.2248665541, 0.1060052589, 0.1990173161, 0.2491864413, 0.1362923384, 0.2239547968, -0.1884868890, -0.1346444339, -0.1793728918, -0.1364393085, -0.0971907005, -0.1487247199, -0.1845705658, -0.1412442178, -0.1996542215, -0.1708895564, -0.0632205606, -0.1310290843, -0.1824845076, -0.0452982821, -0.1529957056, -0.1721357256, -0.0660925731, -0.1512353569, -0.1387907565, -0.1169566140, -0.1337432265, -0.1899204105, -0.1807466447, -0.2046173364, -0.2091592550, -0.1667104810, -0.2075274736, 0.1523990035, 0.1217548996, 0.1578841358, 0.2478688061, 0.2018280923, 0.2762119174, 0.1124450490, 0.1092114225, 0.1447688043, -0.0962037221, -0.0082010645, -0.1286511272, -0.1389829069, 0.0180659220, -0.1183494255, -0.1393982619, -0.0288303848, -0.1157889217, -0.2911675572, -0.1285153180, -0.2357008606, -0.2070279717, -0.0412153453, -0.1620173156, -0.2772054374, -0.1495802402, -0.2833130360, -0.0698091015, -0.0418093540, -0.0807902515, -0.2544373870, -0.1963295490, -0.2819275856, -0.1377419829, -0.0971506312, -0.1564034820, 0.0951014608, 0.0957619473, 0.1135304421, 0.1453084350, 0.1366383582, 0.1910044104, 0.0451822579, 0.0440787710, 0.0868051425, -0.2780982554, -0.2014474273, -0.2479908764, -0.3006873429, -0.2923486233, -0.3494647741, -0.2301119119, -0.2213296145, -0.3158115447, -0.1665077806, -0.0590664186, -0.1318734139, -0.2253860384, -0.1061533689, -0.2117676288, -0.1001698822, -0.0167658031, -0.0845752582, 0.0289099477, 0.0333728045, 0.1090597883, 0.2202264965, 0.2269020826, 0.3103469908, 0.0157863032, 0.0328921676, 0.0780756250, 0.1790657192, 0.0929668993, 0.1511147618, 0.2311045229, 0.1232357919, 0.2371395081, 0.1867839247, 0.1078596860, 0.1925023645, 0.1321075559, 0.1247827485, 0.0835982338, -0.2008735538, -0.2171222419, -0.2507558465, 0.1757852137, 0.1596683711, 0.1331151277
};

data_t cells_1_ops_by_node_2_1_op_1_weight[16][1][5][5] = {
0.0300595630, 0.0739104375, -0.1377349794, 0.0403426960, -0.0268000755, 0.2010193169, -0.0459153354, -0.0594893806, -0.1579359472, 0.2570906281, 0.5448304415, -0.1656070948, 0.1919361800, -0.0926857516, 0.5594330430, 0.0313004144, 0.0478448197, -0.1036088541, -0.0572796687, 0.0078720329, -0.0347757973, 0.0011875676, -0.0164360534, -0.0043403236, -0.0062414897, -0.2107421458, -0.1199226826, -0.1056754291, -0.0756060928, -0.0529692583, -0.1177608073, -0.0767867267, -0.0792888179, -0.0955929160, -0.0669041499, -0.2134159058, -0.1746237725, -0.1312621981, -0.1352896392, -0.1662988663, -0.2189947814, -0.0740281716, -0.1106653661, -0.1263522059, -0.1955402642, -0.0768776909, -0.0511232615, -0.0998648405, -0.1165762469, -0.1187264621, -0.1063508317, -0.0053738123, -0.0543544777, -0.0803157836, 0.0088954875, 0.0014536658, 0.0280547235, 0.0680570230, -0.0809734985, 0.0994626060, 0.0389275551, -0.0338702351, 0.0555497147, -0.1543151587, 0.0529678166, 0.0001631717, -0.0408922471, 0.0240196660, -0.0501231365, 0.0047907350, -0.0419300273, -0.0450633280, -0.0646443740, -0.0420648977, -0.0746513531, 0.2248727083, -0.1478653252, -0.1196985319, 0.0755999312, 0.1296343803, 0.3623666763, -0.1676415652, 0.1477970183, 0.1373991519, -0.0393066183, 0.4171606302, 0.0217204746, 0.2014144659, 0.0722784773, -0.1139837205, 0.2313036919, 0.0695063770, 0.0530545674, 0.0506397933, 0.0293989349, 0.0245624688, 0.1799548119, 0.0229263790, 0.0425806083, 0.0849986896, 0.1104536131, 0.0734962523, 0.0726698935, 0.0886548311, 0.1032486334, 0.1117047668, 0.0820715874, 0.0770322308, 0.0575056039, 0.0941815227, 0.1026832312, 0.0771397278, 0.0847287923, 0.0508796498, 0.0778068751, 0.0437998921, 0.0373660922, 0.0630339310, 0.0326903388, 0.0437057652, 0.1686659902, 0.1437226236, 0.1543979198, 0.1371034831, 0.1508678794, -0.0850782916, -0.0671503767, -0.0366763361, -0.0426374041, -0.0199213270, -0.0394182540, 0.0390294753, 0.0220187865, 0.0611584336, 0.0166700054, -0.0412039012, 0.0624257736, 0.0042568292, 0.0437606126, -0.0351979025, -0.1547352523, -0.1145960838, -0.1067357436, -0.1347183734, -0.1757191420, -0.0544151552, -0.0567478910, -0.0674938187, -0.0811331570, -0.0601481162, -0.0610159449, -0.0600693896, -0.0485759601, -0.0210729148, 0.0040520886, -0.0016012648, -0.0358625911, -0.0448467135, -0.0075405776, 0.0532102920, 0.4158271253, 0.3422288895, 0.3244111836, 0.3401361704, 0.3955584764, -0.0516447239, -0.0623914227, -0.0638668686, -0.0602100976, -0.0841100514, -0.0897630155, -0.0718642995, -0.0347244330, -0.0346576683, -0.0249708910, -0.1305154115, -0.1217495352, -0.1295656115, -0.1036740243, -0.1370311826, -0.1302392483, -0.1123517305, -0.0993228555, -0.0715260804, -0.1467012912, 0.1306588501, 0.1336201429, 0.1018417254, 0.0594171919, 0.0291431937, -0.0210550670, -0.0290900152, -0.0533253551, -0.0990129486, -0.1216654852, -0.1361442208, -0.1155723333, -0.1052394882, -0.1599955261, -0.2002688646, -0.0609702431, -0.0197679494, -0.1244550347, -0.1601844579, 0.1652214676, 0.2204757035, -0.0810415074, -0.1036656499, -0.2517716885, 0.0939885750, 0.4025814235, 0.0299701877, 0.0681081936, -0.2421514392, -0.1703458130, 0.1644656807, 0.0282193553, 0.1799929738, -0.0891033113, -0.3702512383, -0.1188230589, 0.0271756463, 0.1539035290, 0.0239625163, -0.2584189475, 0.0404820517, 0.0120939221, -0.0634949431, -0.0649296939, -0.1993287355, -0.2810080647, -0.1461553872, -0.0952167511, 0.0165142771, 0.0558493137, 0.1241701245, 0.1453219056, 0.1928314716, 0.2335106879, 0.1517873704, -0.0631829798, -0.2053150088, -0.1460277140, -0.1772762686, -0.1389971524, -0.1490549892, -0.1149233431, -0.0027718910, 0.0100190230, 0.1191026643, -0.1561933458, -0.1351918727, -0.1557368338, -0.0969320387, -0.1343069375, 0.0557069182, 0.0474228077, 0.0913282037, 0.0689171329, 0.0822039992, 0.3756917119, 0.2704662085, 0.2939137220, 0.2781828642, 0.3484795690, 0.0673711970, 0.0368647538, -0.0296360049, -0.0228512045, 0.0329884514, -0.0585798360, -0.1045789346, -0.1066127419, -0.0819453374, -0.0789200664, 0.1579941213, -0.0316464603, -0.0091580106, 0.0102438927, 0.0936020836, 0.1837219447, 0.0720793232, -0.0103709428, 0.0662747025, 0.1355947256, 0.3257249296, 0.2349566370, 0.0407382436, 0.1033687517, 0.1689816713, 0.1192565039, 0.0951198861, -0.0302954558, 0.0071745426, 0.0282117762, 0.1238202676, 0.0546596907, 0.0621220022, 0.0637109801, 0.1866608262, 0.0612524673, -0.1540784687, -0.2724741101, -0.0946713164, 0.2764691710, 0.3118508756, -0.1798990369, -0.1840012968, -0.0281658042, 0.1392522901, 0.2619866431, -0.1263680756, -0.1841233820, -0.0021473612, -0.2861369848, 0.0877181217, 0.0246624406, 0.0237275250, 0.1301800013, -0.2510997951, -0.0713356957, -0.0507050902, 0.1416897029, -0.0678858161, -0.1095334291, 0.1589539200, 0.0470792018, 0.0054212119, 0.0372587442, 0.1773751080, 0.1087479964, -0.0131033147, -0.0948408544, -0.0730841681, 0.0783747360, 0.3320538402, 0.0984790698, 0.0537824035, 0.0631868616, 0.3331478834, 0.1409334391, 0.0548649319, -0.0327955969, 0.0323180221, 0.1642140150, 0.0232125316, -0.0062765544, -0.0550166145, -0.0298435874, 0.0534036905, 0.1456661671, 0.0459124781, 0.0497844629, 0.0312352758, 0.1416607201, 0.1119586006, -0.0003154672, 0.1213302240, 0.1150269806, 0.1575423330, 0.0872073919, 0.0423453115, 0.0500812046, 0.1530406624, 0.1372756511, 0.0635829568, 0.0181362834, 0.0011764705, 0.1259919703, 0.1722555310, 0.0357629545, 0.0536788851, 0.0551757626, 0.0901897475, 0.2048639804, -0.0866109207, 0.0550460108, -0.0015387537, -0.0586062633, -0.0098311687, -0.1566056013, -0.0527509041, -0.0451714322, -0.0362005569, -0.0786593035, -0.1602949947, -0.1391684860, -0.1001764461, -0.0172065459, -0.0847839341, -0.1178722903, -0.1252963245, -0.0815005302, 0.0393250100, -0.0401540138, -0.1246682331, -0.0865016803, -0.0814176500, 0.0164126661, -0.0693989173
};

data_t cells_1_ops_by_node_2_1_op_5_weight[16][1][5][5] = {
0.1478570700, 0.0802557543, 0.0734326169, 0.0958954915, 0.1489651948, 0.1013267636, 0.0376046672, 0.0297944825, 0.0579939373, 0.1417623460, 0.1126895025, 0.0622664690, 0.0551660694, 0.0943826213, 0.1731037050, 0.0381849632, 0.0163658373, 0.0173826050, 0.0674387366, 0.1461051852, 0.0406231172, 0.0513120927, 0.0757475123, 0.1274276525, 0.1955480427, -0.1819310337, -0.0122763021, 0.0339280069, -0.0122198062, -0.1816496402, -0.2103073150, -0.0171270426, 0.0265715476, -0.0212554149, -0.2069352567, -0.2391845733, -0.0117479367, 0.0377454869, -0.0183649529, -0.2340664417, -0.2359302193, -0.0292027872, 0.0217049457, -0.0452965088, -0.2468697429, -0.2047982961, -0.0169880670, 0.0288019236, -0.0292371009, -0.2126454115, -0.1792945117, -0.1337530464, -0.1030462086, -0.1307084262, -0.1774864346, -0.1359882653, -0.0921927169, -0.0605640896, -0.0933433324, -0.1400017738, -0.1947651953, -0.1241696179, -0.0841336474, -0.1324195117, -0.2120411098, -0.1578621566, -0.1147517413, -0.0926464126, -0.1266859025, -0.1753767580, -0.1320225447, -0.1056605875, -0.0911361948, -0.1130114496, -0.1439063549, 0.1579027921, 0.0923403129, 0.0620451346, 0.0785749853, 0.0987423211, 0.1021151170, 0.0453094281, 0.0226841085, 0.0398742892, 0.0680251271, 0.1416772604, 0.0832325518, 0.0539999790, 0.0746751949, 0.1007826999, 0.1216432974, 0.0510091186, 0.0184476711, 0.0354667678, 0.0763308853, 0.1644617766, 0.1046189293, 0.0697977766, 0.0983148888, 0.1653508693, -0.1266341805, -0.0850137100, -0.0662002861, -0.0682502016, -0.0964936689, -0.1150543764, -0.0736621991, -0.0588997751, -0.0689891577, -0.1018252820, -0.1103729457, -0.0609739721, -0.0410620011, -0.0511191711, -0.0880373046, -0.1271021515, -0.0792778060, -0.0576371476, -0.0659520477, -0.0980304778, -0.1392223537, -0.0944317579, -0.0739149600, -0.0797845423, -0.1068111509, -0.1129414141, -0.0655009598, -0.0603385270, -0.0687112957, -0.1591001004, -0.0537571758, -0.0266179759, -0.0400709808, -0.0286760796, -0.0988498107, -0.1599572301, -0.1107767150, -0.1130423918, -0.1125610992, -0.1822051257, -0.0941897482, -0.0488279499, -0.0541789904, -0.0478167459, -0.0961317495, -0.1205069944, -0.0760943815, -0.0646327958, -0.0702130869, -0.1139286309, -0.1455754042, -0.1112005338, -0.1041712984, -0.1253652722, -0.1510538310, -0.1207538322, -0.0936562568, -0.0812005922, -0.0963549763, -0.1184206530, -0.1226951480, -0.1083809361, -0.0844379067, -0.0896666199, -0.1107013896, -0.1318068355, -0.1153555214, -0.0864264444, -0.0890168026, -0.1205920279, -0.1334832907, -0.1111066714, -0.0708404854, -0.0686704442, -0.1105441898, 0.1607701778, 0.0891657546, 0.0892512947, 0.1055184975, 0.1432567984, 0.1840770841, 0.1083865985, 0.1038035899, 0.1052000523, 0.1449290663, 0.1860447675, 0.1194450185, 0.1067915782, 0.0974837691, 0.1204918921, 0.1770404279, 0.1133349687, 0.0888268277, 0.0802542642, 0.1026591286, 0.1611265093, 0.1221592128, 0.0907915905, 0.0717198700, 0.0961590782, -0.0525893010, -0.0204634946, 0.0023783303, -0.0196973663, -0.0456579216, -0.0887025967, -0.0458497405, -0.0140557112, -0.0385849290, -0.0746327862, -0.1279545575, -0.0750613138, -0.0455284677, -0.0746589676, -0.1209433749, -0.1102123559, -0.0612826645, -0.0385007337, -0.0602647252, -0.1039050743, -0.0714276806, -0.0326431766, -0.0178503040, -0.0315198191, -0.0656973273, -0.1219084784, -0.0897384137, -0.0746846423, -0.0948672071, -0.1320599467, -0.0993842632, -0.0760743991, -0.0612134486, -0.0765047967, -0.1143842638, -0.1231233403, -0.0818974674, -0.0563993119, -0.0735223219, -0.1241861209, -0.1077658311, -0.0781368613, -0.0557870269, -0.0664288625, -0.1085347608, -0.1233605891, -0.0909060091, -0.0654767752, -0.0833355561, -0.1310704052, 0.1361007839, 0.0756475329, 0.0692605972, 0.0863093063, 0.1449625790, 0.1420606524, 0.0774173513, 0.0658543184, 0.0875935704, 0.1621046066, 0.1512638032, 0.0825409591, 0.0734239370, 0.0955898687, 0.1782207489, 0.1546590626, 0.0980923623, 0.0859685242, 0.1000357494, 0.1673168242, 0.1466067284, 0.0939481333, 0.0751222298, 0.0792068318, 0.1297269464, 0.0999761671, 0.0383931138, 0.0278214253, 0.0635604635, 0.1353911161, 0.0685621575, -0.0182210729, -0.0326090567, 0.0093314406, 0.1048554778, 0.2090580016, 0.1045712382, 0.0900138319, 0.1448810697, 0.2721517980, 0.0731667280, 0.0024696651, -0.0076052989, 0.0463972539, 0.1509624720, 0.0573183894, 0.0116963051, 0.0195727516, 0.0669727176, 0.1558207273, -0.1333714128, -0.0892001987, -0.0423286818, -0.0385252386, -0.0445166230, -0.1324500740, -0.0890907794, -0.0468484834, -0.0326186419, -0.0651380420, -0.1629453450, -0.1109383181, -0.0521343313, -0.0392702259, -0.0914388523, -0.1547055244, -0.1017291918, -0.0415937863, -0.0380297415, -0.0927268565, -0.1446544230, -0.0891654789, -0.0290394444, -0.0255736355, -0.0745220557, 0.1145925447, 0.0532659963, 0.0252582729, 0.0334231406, 0.0725111514, 0.1422117651, 0.0817239806, 0.0646284297, 0.0799159259, 0.1375004351, 0.1238049641, 0.0605724901, 0.0393974781, 0.0485646576, 0.0941503197, 0.1121604219, 0.0519320033, 0.0363408960, 0.0416968353, 0.0902501643, 0.0501144454, 0.0135847423, 0.0056549110, 0.0228413772, 0.0620647445, 0.1153051332, 0.1132643521, 0.0458764993, 0.1178176329, 0.1337133944, 0.1222378835, 0.1285298169, 0.0747630820, 0.1157184988, 0.1019885391, 0.1272126138, 0.1339667290, 0.0727254823, 0.1304904670, 0.1195719913, 0.1267623007, 0.1367905140, 0.0975221619, 0.1411875188, 0.1105379984, 0.1266191453, 0.1453694850, 0.0844228119, 0.1411836594, 0.1309039444, 0.1308896989, 0.0868142471, 0.0753061175, 0.1099763662, 0.1897742003, 0.1381948143, 0.0839914903, 0.0636859685, 0.0916290581, 0.1648841053, 0.1512135416, 0.0897274539, 0.0700801387, 0.0984338894, 0.1624630392, 0.1563303620, 0.0889286026, 0.0721359253, 0.0982817933, 0.1508533806, 0.1160830408, 0.0558658317, 0.0352801718, 0.0549539477, 0.0969572291
};

data_t cells_1_ops_by_node_3_0_op_1_weight[16][1][5][5] = {
-0.2075386345, -0.1487616301, -0.1182887927, -0.1490722299, -0.2098549604, -0.1239236668, -0.0512700155, -0.0108712763, -0.0518717505, -0.1267304271, -0.2287276536, -0.1251815259, -0.0696843415, -0.1254286170, -0.2302545160, -0.1195301041, -0.0551109202, -0.0200445056, -0.0562994704, -0.1218064502, -0.1683624983, -0.1256862134, -0.1041740403, -0.1265978217, -0.1696098149, -0.1408673078, -0.1023920327, -0.0931935757, -0.1021046862, -0.1426674277, -0.1409485936, -0.0730736405, -0.0578173213, -0.0712073296, -0.1328321695, -0.1667847335, -0.0798790827, -0.0632752329, -0.0809310824, -0.1522750109, -0.1470115036, -0.0718359500, -0.0580707788, -0.0736074224, -0.1297848523, -0.1469792426, -0.0991289467, -0.0904474035, -0.0979451388, -0.1295588017, -0.1928728372, -0.1721889079, -0.1644472331, -0.1729044318, -0.1949386150, -0.1043077186, -0.0686329603, -0.0549075343, -0.0701238662, -0.1081008390, -0.2409845591, -0.1927510053, -0.1737866402, -0.1949372739, -0.2462045699, -0.0894977450, -0.0551621951, -0.0419381559, -0.0574047789, -0.0938034356, -0.1794534177, -0.1602532566, -0.1527980119, -0.1623322964, -0.1836894751, 0.1403227448, 0.1085560545, 0.0977898017, 0.1131285504, 0.1541129053, 0.1762501895, 0.1179556027, 0.0973689556, 0.1230328754, 0.1947965175, 0.1295107007, 0.0615876280, 0.0384646319, 0.0681309327, 0.1515058279, 0.1916306913, 0.1369156539, 0.1194010451, 0.1435791105, 0.2095132917, 0.0899393260, 0.0642549098, 0.0576454885, 0.0709820017, 0.1034477279, 0.1291754395, 0.0956803933, 0.0801451355, 0.0954700559, 0.1301895380, 0.1091817096, 0.0536316335, 0.0279291794, 0.0540975183, 0.1125173420, 0.1155209094, 0.0487219878, 0.0176400114, 0.0496764369, 0.1209320948, 0.1137626171, 0.0626281276, 0.0388465673, 0.0638932958, 0.1188815981, 0.0760919228, 0.0483398512, 0.0360582247, 0.0504796915, 0.0813774318, 0.1248162910, 0.0955475047, 0.0828655735, 0.0964236334, 0.1278246790, 0.1559783816, 0.0967536420, 0.0706885681, 0.0982438922, 0.1604291201, 0.1742342412, 0.0955895260, 0.0605304837, 0.0971036702, 0.1784884930, 0.1625119597, 0.0981817245, 0.0693099797, 0.0994765908, 0.1649473459, 0.1487416327, 0.1120718867, 0.0954112187, 0.1124603003, 0.1491335779, 0.1331985742, 0.0787324607, 0.0608029552, 0.0777350068, 0.1282494515, 0.1193207130, 0.0401140563, 0.0161631647, 0.0393462889, 0.1141933203, 0.1450874656, 0.0484280027, 0.0202284735, 0.0479417108, 0.1415627301, 0.1271689832, 0.0461364165, 0.0203922633, 0.0450305566, 0.1240531057, 0.1374909133, 0.0868892446, 0.0689878687, 0.0861860290, 0.1374119520, 0.1817828864, 0.1000467613, 0.0671765655, 0.0989491343, 0.1875260621, 0.1588691920, 0.0343677849, -0.0158045348, 0.0323242582, 0.1645416021, 0.2117695063, 0.0679685995, 0.0108376043, 0.0666669905, 0.2186478525, 0.1555835456, 0.0399574041, -0.0051948121, 0.0400132872, 0.1611189246, 0.1520336568, 0.0818967223, 0.0555102117, 0.0828071237, 0.1566134691, 0.1713388711, 0.1228374019, 0.1058175787, 0.1235002875, 0.1800453514, 0.2204394937, 0.1269838661, 0.0940650031, 0.1250554770, 0.2266911119, 0.2704951167, 0.1492491812, 0.1063033640, 0.1450925469, 0.2716365755, 0.2417431772, 0.1412227899, 0.1047491431, 0.1352127939, 0.2352993041, 0.1920222342, 0.1370726377, 0.1165374145, 0.1320432723, 0.1842351556, -0.1277968735, -0.0923685879, -0.0771746561, -0.0935632810, -0.1315242648, -0.1088536158, -0.0459072366, -0.0184886009, -0.0467819758, -0.1128107086, -0.1738831401, -0.0882694349, -0.0511360541, -0.0891329944, -0.1776545793, -0.1233581603, -0.0496613123, -0.0180753246, -0.0506248251, -0.1258722097, -0.1697936058, -0.1230892837, -0.1030364111, -0.1236272752, -0.1707449257, -0.1706192493, -0.1330932081, -0.1172601432, -0.1336156279, -0.1683577597, -0.1622367948, -0.0912147015, -0.0601213314, -0.0924617499, -0.1613815874, -0.2155533135, -0.1209478527, -0.0792112574, -0.1218427420, -0.2138929665, -0.1455241144, -0.0789472237, -0.0490806773, -0.0798884928, -0.1456309706, -0.1718821675, -0.1318005323, -0.1138358116, -0.1318195015, -0.1712370962, 0.1740547568, 0.0865582526, 0.0645310581, 0.0852349922, 0.1777642220, 0.2144902796, 0.0678681955, 0.0337082669, 0.0661373958, 0.2186919451, 0.2289503813, 0.0461331308, 0.0057618553, 0.0461933576, 0.2326952815, 0.2055241913, 0.0429636799, 0.0063088057, 0.0465734079, 0.2097594142, 0.2201710790, 0.1090270355, 0.0817689747, 0.1133150682, 0.2219423503, -0.1620445102, -0.1178253293, -0.0999746546, -0.1180444583, -0.1594461948, -0.0770786107, -0.0110941287, 0.0161294527, -0.0127732772, -0.0770790055, -0.2040713131, -0.1189678982, -0.0839782804, -0.1204591766, -0.2039462179, -0.0650990531, -0.0077299206, 0.0165347904, -0.0089354441, -0.0658439845, -0.1535230279, -0.1182487309, -0.1034719720, -0.1190953702, -0.1551451087, 0.0817910731, 0.0631568283, 0.0542106554, 0.0653167441, 0.0871588141, 0.0435584858, 0.0108736521, -0.0055233622, 0.0127643850, 0.0489873849, 0.1099102423, 0.0659658760, 0.0440524556, 0.0678966194, 0.1150629222, 0.0585675351, 0.0238737185, 0.0064432579, 0.0251203943, 0.0616027117, 0.0860031545, 0.0655220598, 0.0553950481, 0.0658695102, 0.0861098692, 0.1662801057, 0.1008934304, 0.0675221384, 0.0990054011, 0.1644495130, 0.1665642112, 0.0656683445, 0.0131927663, 0.0636678115, 0.1654208750, 0.1824369580, 0.0673641264, 0.0065273861, 0.0658709779, 0.1819945127, 0.1460811496, 0.0525862314, 0.0044962927, 0.0526606888, 0.1477005035, 0.1555650830, 0.0967244357, 0.0674657375, 0.0967936292, 0.1566745937, 0.1268029064, 0.0832296610, 0.0644815043, 0.0787112713, 0.1220390350, 0.0822406113, 0.0188014433, -0.0074530896, 0.0150803039, 0.0785377920, 0.1178246289, 0.0477104597, 0.0198080707, 0.0457219929, 0.1157929003, 0.0744065866, 0.0158078633, -0.0073164413, 0.0149477469, 0.0731747597, 0.1070330814, 0.0684519112, 0.0540856458, 0.0695185810, 0.1084340289
};

data_t cells_1_ops_by_node_3_1_bn_bias[16] = {
-0.0772442445, -0.1255370528, 0.0949120820, -0.0473492779, 0.0596457943, -0.0446220450, 0.0194571875, -0.1920464337, -0.0497388467, 0.1223784611, -0.0437094308, 0.1002758741, 0.0609169863, -0.0102786226, 0.1070422530, -0.0179729350
};

data_t cells_1_ops_by_node_3_1_bn_running_mean[16] = {
0.0105693862, 0.0022563650, 0.0611791424, -0.0520353615, 0.0180986132, 0.0918891951, 0.0011912854, 0.0730376095, -0.0377111435, -0.0426408686, 0.0732001439, -0.0342096090, -0.0171376877, 0.0013591890, 0.0116783623, -0.1343762279
};

data_t cells_1_ops_by_node_3_1_bn_running_var[16] = {
0.0473495908, 0.0216641296, 0.0272485726, 0.0321953855, 0.0620977320, 0.0876102373, 0.0350651741, 0.0390124246, 0.0293313451, 0.0191917215, 0.0780292600, 0.0208108313, 0.0179453772, 0.0341710150, 0.0278796107, 0.0626088977
};

data_t cells_1_ops_by_node_3_1_bn_weight[16] = {
1.2903271914, 0.5774695277, 0.8917504549, 0.7353190780, 1.6957830191, 2.0878877640, 1.1400144100, 1.2260946035, 1.0242294073, 0.8823342919, 1.3347795010, 0.9367741942, 0.5433741212, 1.1785292625, 0.8163820505, 1.4092459679
};

data_t cells_1_ops_by_node_3_1_conv1_weight[8][16][1][1] = {
0.0958012119, 0.1325394511, 0.1768024117, -0.0062274192, 0.0582477823, 0.0721846968, 0.1562482417, -0.1455717534, 0.0919386744, -0.0132987294, -0.2634875178, 0.2508501112, 0.0653065592, -0.0385268591, 0.0634611771, -0.3560290933, 0.0447601415, 0.1813250333, -0.0401657820, -0.0039253687, -0.0792106614, -0.1893917322, 0.0282931309, -0.1418672353, 0.0036558015, -0.0571631044, 0.0893141106, -0.0987271145, 0.1021791622, 0.1276185215, -0.2267852277, 0.0402772278, -0.0580324717, -0.2074673772, 0.2274681032, -0.1402820796, 0.0689162612, -0.0802762210, -0.1284761131, -0.0426211208, 0.1340276152, 0.0209101290, 0.0595537499, 0.2896489799, -0.1046063378, -0.0381790698, 0.1631322354, 0.1284111887, 0.0110446764, -0.2225385457, -0.1353951991, -0.1653288752, 0.2125246823, -0.1533560604, 0.0376301333, -0.0239647049, -0.2159174234, -0.0185534507, 0.2016589940, 0.0134118674, 0.1011998877, 0.0061172377, -0.3267116845, 0.0988582075, -0.0614468120, -0.0642771497, -0.0715112761, -0.0682900026, -0.0833674222, -0.1769625843, -0.2824338377, 0.0418404043, 0.0415968746, -0.0818208978, 0.2447806150, -0.0124006821, -0.0760312304, -0.0584117584, 0.0264785346, 0.4735983312, 0.1980463117, 0.0645786747, -0.0240597408, 0.0747510046, 0.0080209365, 0.2344345599, 0.5906668305, 0.0116958953, -0.1083403528, 0.1583914757, -0.3608364165, -0.0180066749, 0.0295144245, 0.1251278073, -0.1098278016, -0.3511901796, 0.1794337928, -0.0512686037, 0.0606774762, -0.1261020005, 0.0435054228, 0.0867400616, 0.2458167970, 0.1956330687, -0.3224233091, -0.0629505217, 0.0607464164, 0.1013475806, -0.1334099174, -0.0853188336, -0.0972977951, -0.0828140602, 0.1669760346, 0.1606614292, 0.0922003835, -0.0534429625, -0.0362574756, -0.0933750197, 0.3956498802, -0.2524734437, 0.0499669164, 0.0094770975, -0.1401854753, 0.1622716039, 0.0604713559, 0.0085835392, -0.1214086637, -0.1688393205
};

data_t cells_1_ops_by_node_3_1_conv2_weight[8][16][1][1] = {
0.1430746317, -0.0701480880, -0.0996864289, -0.1215511113, 0.2213663906, 0.0744769126, 0.1270109415, -0.0126191406, -0.1605461836, -0.0725756362, -0.1352571696, 0.2217720449, 0.1446482688, -0.1681900769, -0.0636787713, -0.1316245943, 0.0342055820, -0.2427195311, 0.2695320845, 0.0484136939, -0.0775213391, 0.0368747935, -0.0870184824, 0.0791492760, 0.0775756910, 0.3771300018, 0.0803899094, -0.0428785086, 0.0427844152, -0.0999145731, 0.0131764337, -0.1880788505, -0.1432425082, 0.0635000020, 0.0820033178, -0.1819605082, -0.0104778949, -0.2309134305, -0.1327655762, 0.0519853234, 0.1120886579, 0.0842975974, 0.2969273031, -0.2148857415, -0.2062864304, 0.1260949224, 0.0271318052, 0.4632228017, -0.0167955644, -0.1325725317, 0.0727104545, -0.0469574779, 0.0364925787, -0.1206907928, -0.0991097018, -0.0434867479, -0.1001913697, -0.0956771746, 0.3743678629, 0.1299472004, -0.0552160442, -0.1785307080, 0.0229156613, 0.0169155933, -0.0311733503, -0.1712610871, -0.2900165915, 0.0679983273, 0.0278945658, -0.0507257991, 0.0214328784, -0.1139364615, 0.0062155323, 0.1076968759, 0.0890117288, -0.1820075810, 0.1355421692, 0.0245638490, -0.0023238477, 0.0786769241, -0.0077640424, -0.0040323380, 0.1642850935, 0.0697269663, -0.0298089776, 0.0584487021, 0.2073131651, -0.0864130780, 0.0547084659, 0.1690157950, -0.0978884473, -0.0268398281, 0.0331857428, 0.1090465486, -0.0527191609, -0.3630277514, 0.1221465468, -0.0883398503, -0.1586325914, -0.0258474629, 0.0594062805, -0.0132945972, -0.0167716574, 0.0069243307, -0.1401380152, -0.1486553401, 0.1309748441, 0.1975846887, 0.0060992711, -0.2588083148, 0.0885790437, 0.1588090509, 0.0057510468, 0.0241147913, 0.2001370490, -0.0660588592, 0.1488952935, 0.1316319406, 0.0816064551, 0.1578711271, -0.1221572310, 0.2155663371, -0.0340569168, -0.1273159385, 0.1099824980, -0.0167799816, -0.0426844992, -0.5723400116
};


data_t onnx_Conv_346[16][16][1][1] = {
-0.1161348969, -0.0376682766, -0.2442664653, 0.2232666463, -0.5749381781, -0.0537579581, -0.0657883808, 0.3476557434, 0.4248919189, 1.4108157158, 0.4557377696, 0.3814028502, -1.1161254644, -0.0867839679, -0.4183733761, -0.0105532594, -0.4708660841, 0.6043549776, 0.9074616432, 0.0177154429, -1.3286629915, 0.1146990880, -0.1374893486, 0.3228256404, -1.1023042202, 3.7924175262, -1.7853406668, 0.7120924592, 0.9968225360, 0.6475968957, -0.0147662573, -0.2575300038, -0.1308722198, 0.2329147011, 1.4031088352, -0.8402454853, -3.1926856041, -0.6906212568, 1.5176265240, -1.1885945797, 0.9598812461, 3.4676232338, 0.0994504616, -0.3760643005, -1.2296385765, 0.7180272937, 0.0475488752, -0.9724850655, -0.1196141541, 0.6150130033, 0.2930001020, -0.0119932406, 0.3842849135, 0.9742822051, 0.0542305186, -0.1814316213, 0.7348846197, -0.1216077209, 0.1860075593, -0.2952734828, 0.4000523090, -0.3573326766, -0.5617216825, 0.3742710352, -0.3043866456, 0.2075158507, 4.2598147392, 0.3015797436, -0.9433059096, 2.5801205635, 0.5336356759, 1.7522829771, 0.5714291930, 0.1103029326, -0.0716244355, 0.1210436821, -1.0181963444, 0.5475023985, 1.0336058140, -0.1656100005, 0.2959722877, 0.2238078862, -0.0968899578, -0.1580976993, -0.4291871488, -0.6758279800, 0.0767240003, -0.6037861705, -0.5229739547, 0.2096838504, -0.0588915534, 0.1880272478, -0.8180165887, 0.0132593689, 0.5449488759, -0.1825593710, -0.8588488102, -0.6160836220, -0.5369890332, -0.0141594112, 0.3252600133, 0.2910897136, 0.3330258429, 1.0515934229, 0.4915647507, 0.6566497684, -1.1546429396, -1.0470376015, -0.5866653919, -0.0878842175, -0.0674484819, 0.1587831080, -0.3476689160, 3.2203717232, -1.6194429398, -0.3874752223, -0.1960427165, -4.7362384796, -0.2284265310, 5.0226864815, 3.5786631107, -1.6817669868, 1.7408530712, -0.3825325370, -2.3394176960, 0.3486485481, 0.2909154296, -0.2608483136, -0.2645710409, -1.7756030560, 0.9510767460, 0.2448747009, 1.7209883928, -0.2942922413, -0.2208518088, -2.0766811371, 2.0494518280, 0.3488349915, 1.3873536587, 0.1594483852, 0.9918372035, 0.1440665722, 0.3280918598, -0.2882086635, 0.3254721165, -0.6330182552, 1.2207516432, -0.1100143716, 0.0193117484, 0.4068638682, -1.4516023397, -0.0317653939, -0.1331657469, -0.1572939008, -0.9357638359, -1.0646215677, 0.8138906360, -2.1924273968, 1.6916316748, -0.3363125920, -1.0602722168, -0.3268128932, 0.4198644161, 0.6133282185, -0.0913062170, 0.3878719807, 0.7148422599, -0.5559417009, 0.2492608577, -0.3768083751, -0.7336343527, 0.0053250287, -0.1781901121, -0.3418445885, 0.1487827450, 0.2893658876, 0.0552136526, -0.5532215834, -0.0588121191, 0.5641188622, 0.0006488651, -0.0979110450, 0.0685518607, 0.5773686767, 0.1853806973, 0.3316852748, 0.5633969903, 0.4091311991, -0.8082289100, 0.2512513399, -0.4426897168, -0.1881258041, 0.9152731895, -0.7781510353, -2.4588625431, -0.2104369402, -4.1205029488, -0.0042282809, 0.7044090033, -2.0273280144, -0.2863443196, 0.4718522131, -0.7518751621, 0.0926049948, 1.2791720629, 0.9221946597, -1.6467031240, -0.0884990171, -0.3440270126, 0.7109499574, -0.1725455821, -0.5271700025, -0.5576863885, 0.1598529518, 0.2273485810, 0.2799575925, -0.3444190621, -0.1454477012, 1.6134651899, 0.2048109174, -1.1041809320, -0.7119655609, 0.0398966819, 0.1091724411, 0.6457850933, 1.1828036308, 0.0870060995, 0.1712808907, 2.7827725410, 0.4431762695, 1.0169804096, 1.0000431538, 0.8976643682, 2.1647830009, -0.0339108370, 0.6723286510, 1.2115329504, 1.3439956903, 0.7808737755, -0.6605313420, 0.2797869742, 0.0665662363, 0.0288562924, 0.0882728249, 0.0180189665, -0.0653990433, 0.1265399754, -0.1398676187, 0.0008017703, -0.0014361653, 0.1745019108, 0.3181509078, 0.0270934161, 0.0483488441, 0.0614124946, -0.1659309864
};

data_t onnx_Conv_347[16] = {
0.7437120080, 0.5581542850, 0.0157274753, 0.5189357400, -0.9305720329, 0.2189000845, 0.7843334079, -1.1424175501, -0.0137478188, -0.9336645603, -0.1117061079, -0.0977961347, -0.2163527757, -0.4072896242, 1.3953819275, 0.3388838172
};

data_t onnx_Conv_349[16][16][1][1] = {
-0.2560966015, 0.1611010879, 0.0959288552, -0.5959162116, -0.0706582740, -0.0160468183, -0.2675307095, -0.0432915464, 0.2380729914, 0.5282421112, 0.0924675688, 0.2124702632, -0.2923748195, 0.0916203186, 0.4414819479, 0.8330919147, -0.1358556747, 0.4363943338, -1.0385022163, -0.0340571329, 0.1395752430, 0.0568542629, -0.1271297634, -0.2230486423, -0.5959691405, -1.7676423788, -1.3623828888, -0.2013034523, -0.1362165362, 0.2004203796, -0.1490484327, -0.9174935818, 0.3153465092, 0.2715397775, 0.0323603973, 0.5034722686, 0.7458342910, 0.1754568517, 0.7698214054, -1.1089814901, 0.0433508530, 0.3403802812, 0.0672590956, 0.1841031015, -0.5444383621, 0.0597792044, 0.1200190634, 0.1028241664, -0.0977136493, 0.1154970974, -1.1813471317, -0.1373860836, 0.4958888888, -0.6488565803, -0.1033353806, 0.1944981217, -0.1943244338, 0.2198801041, -0.0354366414, -0.7908732891, 0.2212008834, 0.1505446434, 0.1736970246, -0.0313888751, -0.1492640078, -0.1510347873, 0.0881344974, -0.2930641174, 0.1425226480, -0.1347738653, -0.1757838577, 0.0885878131, -0.1015697867, -0.1076086983, 0.3189485967, 0.1072239876, 0.0607191026, 1.1746057272, -0.0974298492, 0.0321190208, 0.1663122773, 0.3116677701, -0.2137999535, 0.1792088449, 0.0527532622, -0.2885561883, -0.7028239369, 0.0868896097, 0.3196849227, -0.4538707733, -0.1269034147, 0.3952935934, -0.1127657294, 0.0203742478, 0.2417000681, -0.0378752723, 0.6848447323, 0.3487425447, 0.9756765366, 0.6388586760, 0.5273464918, -0.2524943948, 0.5025539398, -0.0115399184, -1.3037514687, 0.2167977095, -0.4012029469, -0.1925281733, 1.6621675491, 0.0914190561, 0.9285430312, -0.7881384492, -0.0526443273, 0.5678747296, -0.1010711640, -0.0969472602, 0.1361391991, 0.5720176101, -0.4267497659, 0.0919446424, -0.0075804400, 0.7464427948, -2.3058192730, -0.1223843172, 0.0749596730, 0.0674149767, -0.3011441231, -0.6819865108, 0.1211989149, -0.2857401669, 0.0639582574, 0.0697019547, -0.6834955215, -0.2596187294, 0.3671115637, 0.9276810288, 0.0657132119, 0.4912957549, -0.3292013109, -0.1534801275, 0.5241923332, -0.0011377911, -0.4595972598, 0.2167372853, 0.1102377176, 0.1293250024, 0.2519951463, -0.1405198574, -0.2681749165, 0.2394253761, 0.4262178242, -0.1370689422, 0.1348503083, -0.1589275748, 0.1232219562, -0.1844998598, 0.2500655055, -0.1876156777, -0.2381195575, -0.3339551985, 0.3583143950, -0.5254456997, 0.2980214357, 0.4608186483, 0.2379246205, -0.3355339170, -0.2794288993, -0.0495177694, -0.2566336393, 0.2280059010, -0.0354603156, 0.4150702357, -0.2067067474, -1.6752728224, -0.2670153677, -0.5634068847, 0.6896095276, 0.4283026159, 0.4603612721, 0.6276652813, -0.0985507220, 0.4022916257, -0.1935650557, 0.0030854496, -0.5018178225, -0.5172894597, 0.1677385122, 0.0264839977, -0.1413179189, 0.0091082416, 0.1345452517, -0.3016195297, 0.1039577499, 0.2567644119, -0.0684941038, -0.0014342046, 0.0578192286, 0.1468359232, -0.2700764835, 0.2403623760, -0.0838784575, 0.0055062613, 0.0402418897, 0.0303509627, -0.0401869528, -0.0269301962, 0.2019655854, 0.1464150399, 0.6762948632, -0.5486052632, 0.3553960025, 0.1243418604, 0.0789569020, 0.5785056353, -0.3609679043, 0.0068991976, 0.1209620312, 0.5906841159, -0.0671601668, 0.2792338133, 0.2336079031, -0.1493753195, -0.1862664819, -0.5286203027, 0.1741852164, 0.1277364641, -0.0878061280, -0.0975962356, -0.6774055958, -0.3810360730, -0.3635294735, -1.1127085686, -0.0774417743, -0.0534682609, -0.0499704890, -0.1690547764, 0.4761393666, -0.0362456180, 0.1653005332, 0.2951550782, -0.8747053742, -0.3147704303, 0.0072331782, 0.4102654457, -0.1309100389, 0.1862777919, 0.0726443678, -0.1523564309, -0.3881613910, 0.1154104099, 0.1893636286, -0.2410119921, -0.2267190069, 0.1972056627, 0.6764725447, 0.6878994703
};

data_t onnx_Conv_350[16] = {
-0.4328873158, 0.0742241144, 0.0290038437, -0.3040564656, -0.3975026011, -0.4378637671, 0.4003107548, 2.5317904949, 0.4289841652, 0.3743900657, -0.0659913868, -0.2879595459, 0.1610766053, 0.9251493216, -0.2451130301, 0.0119460076
};

data_t onnx_Conv_352[16][16][1][1] = {
-0.5417376161, 0.0709999874, 0.9122865796, -0.2226017714, 0.8940276504, 0.0710417554, -0.0609169714, -0.3213706911, 1.1608409882, 0.1358947158, -0.8159763813, 0.2360610515, 1.4342499971, -1.4118766785, -0.7145458460, 1.3429696560, -0.4259316623, -0.6792103052, -0.9753585458, -0.5684911013, -0.2916539013, 0.1498302370, 0.6101864576, 1.8819719553, -1.0464187860, -0.2489466965, -0.5785134435, -0.2933200300, -1.4517347813, 0.2616630197, -0.4220315516, 0.8960087895, -0.0257340148, -0.4429354668, 0.1059141606, 0.4151119590, -0.2000252157, -0.1141024083, 1.1753096581, -0.3484517336, 0.0754361749, 0.3681980968, -0.6697406173, -0.0235007368, -0.1349366456, -0.8099580407, 0.0524602607, -0.6134663820, 1.0553487539, -2.1617653370, -3.3065040112, -0.4283032715, -0.2320745885, -1.1646603346, -2.2439424992, -0.3740369678, -2.4341578484, 1.5549982786, -1.0802952051, 1.4494390488, 0.6437425017, -0.2216556519, -1.1604880095, 0.5368075371, -0.0832626149, -0.3654946387, -0.3574785292, -0.6593410969, 0.2568362951, 0.3172188401, -2.1970238686, -0.7443541884, -0.2825970948, 0.1504707336, -0.2174071968, 0.0991151258, -0.3149579763, 0.9473334551, -0.0646490604, 0.5680518150, 0.0779624283, -1.1632081270, -0.0973298028, -0.4815846980, -0.5989049077, -2.7827889919, -0.9753353000, 0.3080067635, -0.7077642679, -0.3642652035, -1.4877750874, -0.0377815701, -0.2854042649, 1.4524830580, -0.0579178780, 0.6856345534, 1.7196625471, -0.2156118155, 1.2647616863, -1.2485854626, -0.4546757042, 0.1032007262, -0.9028673768, 0.2028586566, 0.9242635965, 1.3509863615, -1.4935156107, -0.4615367949, -0.8926220536, -0.2389921397, -0.0690758675, 0.6436192393, 0.2167283744, -1.8449459076, -0.4144137204, 0.3436837494, 1.0408821106, -0.4295065105, 1.6299297810, 1.9406034946, 0.2232115716, 0.8559610248, 0.7529276609, -0.2223344147, 0.8243567348, 0.5409164429, -0.1467909813, 0.0063054822, 0.1391726136, -0.5034798384, 0.1570968479, 0.3931743801, 0.2022279948, 0.3259704411, -0.5360436440, -1.4729579687, -0.0427500978, -0.3437658250, -1.2032122612, -0.0768779144, -0.1779547185, -0.6606126428, -0.4288238883, 0.2502864301, 0.3764248192, -0.5484175682, -0.2264392227, -0.9698362350, 1.8777589798, -0.9084646702, -0.0041335667, -1.9745705128, 0.2711352110, -0.6869716644, -1.5341966152, -1.0705958605, -0.2676745653, -0.3504609466, -0.1781465858, -1.0539993048, -0.7009239793, 2.5700919628, -0.2968637943, 2.2329773903, -0.4281118512, 0.7621186376, 0.1537293643, -0.4121215045, 0.7993605733, 2.4974915981, 0.1550148129, -0.9265719056, 0.5101736784, 1.6031221151, -0.3076384068, -0.7913100123, 1.0222489834, -0.5158255100, 0.0180441886, 0.0769943297, 2.3916234970, 0.2644126415, 0.9297266603, 0.5746862292, 0.5402706861, -0.0656002983, 2.0411045551, -0.1545718908, 0.5575811267, -1.4375368357, -0.0846040547, -0.5691073537, 0.0871988013, -0.7240357399, -0.5020610690, 0.1785159856, -0.1167037264, 0.2515319884, -0.0418227017, 2.0218470097, 0.6927971244, 0.1356556714, -0.5902230144, -0.0061457059, 0.5575073361, -0.2811760306, 0.2223003060, -0.2489700019, -2.0967893600, 0.5926008224, -0.5248631835, -0.8114591241, 0.2862965465, -0.5256296992, -0.0427946001, 0.8176219463, -0.5127074122, 0.8336315155, -0.6609793305, -2.3883371353, -0.7851129174, -0.9438602924, -0.0498652160, -1.1510735750, 0.0012326315, -0.7850394249, -0.4728309512, 0.3873991668, -0.0634311140, -0.8644056916, 0.4452655017, -2.0613012314, -0.6465302706, -0.0265288278, -0.0743738860, -0.1206621602, -0.1518716514, -0.2684664130, 0.0438028984, -1.3145488501, 0.2677453458, 0.0664800182, 0.5440827012, 0.8227460980, 0.3015987277, -0.1379970610, 0.0741026103, -0.0440583229, 0.4182860255, 0.7118942142, -0.2669089437, 0.0621023886, -1.9366524220, -0.1181334257, -1.8099595308, 0.1222743988
};

data_t onnx_Conv_353[16] = {
1.3119550943, -0.7552595139, 0.2596467435, 1.3664493561, -0.3226742446, -0.3179995120, -0.0501196086, 0.1923694611, 0.2879084945, -0.0107495189, 0.1212265939, -0.0777100772, -0.0313573554, 0.4041851759, 0.1469860822, -0.5228338242
};

data_t onnx_Conv_355[16][16][1][1] = {
-0.1655783653, 0.0818838105, -0.0267258920, -0.0735406131, 0.0905659795, -0.1255002171, 0.0083216401, -0.0472285785, -0.0175005849, -0.1688826084, 0.0859736204, -0.0727708340, -0.0795811340, -0.0066949055, -0.1130842045, -0.3921659291, -0.1928315759, -0.1514051855, 0.4518214762, 0.2285844535, 0.0765162483, -0.4385790527, 0.1511975527, 0.1329160482, -0.1025911272, -0.1112084612, 0.1217605919, 0.0359191187, -0.0071482519, 0.2974167466, 0.1862412989, 0.1127064079, 0.3754300773, -0.1075624973, -0.0872637331, -0.1073071435, -0.0303875040, -0.3734739423, -0.0972725078, 0.0076857167, -0.2068318129, -0.2298408151, 0.1297455579, 0.0210945141, 0.0631812885, 0.0094355987, 0.1022105142, -0.2447307706, -0.0730134919, 0.0063669686, -0.0689668730, 0.1313698441, 0.0115647828, 0.1095405221, -0.1815827936, -0.0829717740, -0.0129382359, 0.0716097131, 0.0532445274, -0.2100550085, 0.0153644979, -0.0263114441, -0.0103464564, 0.4979162216, 0.1213086843, 0.3874997795, -0.2049317658, -0.1449950039, 0.0587623566, 0.1798425019, -0.0938944593, -0.4259172678, 0.0336778611, 0.4660894275, 0.2528282702, 0.2982796431, -0.0092695681, 0.1466594636, 0.2126432806, 0.0546607040, 0.1592661887, -0.0112664495, -0.1369933933, 0.1430365443, 0.1851689070, 0.0022038491, -0.2829966247, -0.0788054839, -0.1691539288, 0.2338068634, 0.0355364978, 0.2007336617, 0.1340635568, 0.2819123864, 0.0056042750, -0.1477613449, -0.0399207100, 0.4738882482, 0.0354230367, 0.2720228434, -0.0691093057, 0.1209081039, -0.2920853496, 0.0017997143, -0.1272296458, -0.0931230783, 0.1367085874, 0.2625071704, 0.0998954549, -0.2753310502, 0.1851407737, -0.1021786705, 0.0002236386, -0.0031156035, -0.0487854071, 0.0965454653, 0.0239159260, -0.0460179560, -0.0574390590, -0.0373547152, 0.0165788196, 0.0363479517, 0.0738739669, -0.0541967265, 0.0289735626, 0.0355490632, 0.0187292472, -0.4164547324, 0.1485622227, -0.0656037554, 0.1103991941, -0.0169125833, -0.0979152769, 0.4458997250, -0.1072002500, -0.0151852900, -0.0139768487, 0.0934439451, 0.0556389615, -0.2127073556, 0.1531154513, 0.4238058031, -0.0598049648, -0.0725291595, 0.0118757552, 0.0158118121, -0.0582864434, -0.0174156707, 0.0554899313, -0.3038446009, -0.1176662594, 0.0472877435, 0.0084149288, -0.1092694178, -0.0873640925, -0.0128197130, 0.0350462086, -0.0767863393, 0.0412581749, 0.0116293011, -0.0941181481, -0.2611825168, -0.2760384679, 0.2215365916, 0.1209865957, 0.0463672653, 0.0684337318, -0.0748374462, -0.2174737304, 0.1192489043, -0.0740458816, -0.2663538158, 0.3117527068, 0.4712529182, -0.1245605499, 0.0778133944, -0.1940127462, 0.1283007115, -0.0417197123, 0.0320811905, -0.0493770167, -0.0942733884, 0.0872162282, -0.1071706042, 0.1116210595, -0.1226417720, 0.1092577651, -0.0709261000, 0.0245786905, -0.2693006992, 0.2732398212, -0.0976984575, -0.0661095381, 0.0424846597, 0.0444349796, -0.3126255274, -0.2941678464, -0.0235793591, 0.4104526341, -0.2323617041, 0.4155660570, -0.1323012710, -0.1500272453, -0.1542670578, 0.0931309462, -0.0577030443, -0.1615490615, -0.1099791974, 0.1255373657, -0.0747423843, -0.1339175105, 0.0790828541, -0.0047961925, -0.0443392769, -0.0380883738, -0.1376320273, 0.1159678698, 0.3130671680, 0.3722655177, 0.0646390542, 0.2584368289, -0.0841976926, 0.1210587174, -0.7481960058, -0.0794241950, 0.0066464012, -0.1004638374, -0.1187134683, 0.0375136882, 0.0260523446, -0.3253312111, 0.0461033955, -0.0345937647, 0.0340153575, 0.0113609778, 0.1394657940, 0.0239475369, 0.4065465331, -0.0654880106, 0.0653344020, 0.1599814743, -0.1235684007, -0.1286678016, -0.0947267264, 0.1182734147, -0.5169435143, -0.0238391813, -0.1691979468, 0.0992788598, 0.3703859746, -0.1204459593, -0.1103410125, -0.0509582944, 0.1167708710, 0.0190004203, -0.0484992191
};

data_t onnx_Conv_356[16] = {
0.0188771524, -0.2329307646, 0.1164697707, -0.2229914069, 0.1845733225, 0.4604650140, -0.0383438766, 0.5595497489, -0.2132858783, 0.2698752582, -0.1335251033, 0.0908705667, -0.4620941579, -0.1115704775, 0.0631126463, -0.1693770885
};

data_t onnx_Conv_358[16][16][1][1] = {
-0.1206828877, 0.2395147830, 0.0723877847, 0.0937250778, -0.2435621023, -0.1726860404, -0.4275442660, 0.0454428308, -0.1060083881, 0.1103527248, -0.1242820099, 0.2191568166, -0.1522407532, -0.3697383702, 0.0116744498, -0.0526667945, -0.5313647985, 1.3630501032, -0.0395446792, -0.1784648448, -0.6455190778, -0.7659214139, -0.1080781221, -0.8559572101, 0.2446510345, 1.7050209045, 0.7507334948, 0.4031607211, -0.5397841930, -0.1715502441, 1.4120142460, -1.6644699574, 0.7559230924, 1.9193912745, -1.1591900587, -1.5326011181, -1.8983670473, -1.8575682640, 1.8518272638, 2.3157181740, 3.8145511150, -0.8089969754, 2.2797915936, 1.2412180901, -6.7940163612, 16.5475883484, -0.6051992774, -2.2134451866, 0.1568120420, 0.5936176777, 0.1393798590, -0.8536232710, 0.1005025879, -0.3874201775, -0.6508262753, -0.8157768250, -1.8905886412, -1.5288306475, 0.6979831457, 1.0673828125, -0.0709749907, -0.3829278946, 1.9584660530, -0.7848948240, 0.0773764774, 0.4851785302, -0.0173132997, 0.0850960314, 0.4833789170, -0.1598566025, -0.0931740925, 0.1706485748, 0.3136791289, -0.0427375510, 0.0478227511, -0.3496817052, -0.3627938628, 0.3636355698, 0.2624001801, -0.8074042201, 0.6955419779, -0.0904848948, -0.2069754750, -0.4531357288, 0.1582597345, -0.2147077024, 0.2660665512, 0.1491953433, 0.1049251407, -0.2656240761, -0.3623257577, -0.6328352690, -0.0102232285, -1.3740718365, 0.0860693008, 0.3243423998, -0.8637204170, 0.2866421938, 0.5145195723, 0.0413299426, 0.6681897044, -0.5304887295, 0.1153048128, 0.4367603064, -0.0136976354, 0.2212632596, -0.1463813335, 0.8220636845, -0.5736957788, -0.1550673246, 0.1627008170, -0.0800786987, 0.7369676828, 0.4903933704, 2.2800962925, 0.5032309890, 1.1597985029, 1.7200572491, 1.1341735125, 0.8717314005, 1.3755335808, -0.3129181564, 5.3183531761, 3.5205190182, -2.8057875633, 0.3491578996, -0.1176911294, 1.4903626442, 1.0865778923, 0.3908576071, -1.3879299164, -0.6924657226, 1.1661255360, 1.9851397276, -1.3680409193, -0.2137672007, 0.0064318702, 0.1310831308, 0.6884080172, -0.6300837398, 0.2126281410, -0.0157791395, 0.1693080515, -1.5715242624, 0.4580458105, -0.7434650660, -0.7390020490, -0.6219193935, -0.4104872048, -1.4511526823, 0.5902268887, 0.0294010341, -1.3814693689, -0.3604839742, 2.9881360531, 0.3831603825, -0.9838228226, -0.7017016411, 0.1270284504, 0.7981783152, 0.2352529913, -0.3146671057, -0.0228215419, 0.1267451793, 0.1676831692, -0.2260195017, 0.2423039824, -0.1287425607, 0.1309754848, -0.1729964614, 0.1433306634, -0.0535371155, -0.1039072350, -0.1918558478, 0.1127241626, 0.0713961497, -0.4673937261, 0.6040008068, 0.5298826098, 1.7067714930, -0.9449181557, -0.1996447146, 1.0379025936, 1.6813620329, 0.0272741653, 0.7100809216, -0.1041056290, -0.4491855204, -0.6674097180, -0.2427026480, -0.3782158196, -0.8594034910, 1.3868191242, 0.1091852337, 0.1251773983, -1.4001073837, -0.5913739800, -0.1851536781, 1.1529580355, -1.6715878248, 1.2809503078, -0.2900108993, -0.8527352214, -0.6870973110, 0.5823048949, -0.4300853908, -0.1759882718, -0.6703926325, 0.1885611415, 0.0338307507, -0.0107817566, 0.2794469297, 0.5117232800, 0.1922193319, -0.0504317805, 0.4221311510, 0.4030352831, 0.0710102171, 0.0391204469, 0.5576528907, -0.1418600678, -0.2799347937, 0.0497872196, -0.4068037570, -0.8275067806, 2.3696179390, -1.1344867945, 1.0645211935, 0.9690752625, 0.6169384122, 0.9444653988, 1.3094033003, 0.7705751657, -0.4522348046, -0.4764319062, -0.2362518013, 0.1217376143, -2.2491014004, 0.4725795090, 0.7572746873, 1.7322287560, -1.5223428011, -1.7081187963, -0.3964516521, -1.0894513130, 0.1082212552, -1.6289397478, -0.0571610928, -1.0549036264, 0.3131144643, 0.5953599215, -1.4475946426, 0.6069607735, 0.1218631789, 0.0878673196, -0.4517622590
};

data_t onnx_Conv_359[16] = {
0.1516340673, -0.0718232244, -0.3037217855, 0.2397542447, -0.1440806836, -0.0193005875, -0.0117368400, 0.2060869932, -0.0511816889, 0.5129365921, -0.0064884461, 0.3624476194, -0.2822837830, 0.0855237246, 0.5380476713, -0.3965723217
};

data_t onnx_Conv_361[16][16][1][1] = {
-0.0814232156, 0.0257815160, -0.1787737757, -0.0342650823, 0.1995359212, -0.1055618674, -0.0359968171, 0.0726938024, 0.0791209564, 0.0634052828, 0.0128756398, -0.1050729305, 0.0510837808, -0.0842360258, -0.0894157961, -0.0034286689, 0.0130265001, 0.0201415643, 0.1292888522, 0.1500662714, -0.0965229720, 0.0142380195, 0.2859913707, 0.1863711923, -0.0814696923, 0.0178662241, 0.0671185777, 0.3499730527, 0.0376399867, -0.2116096765, -0.1643614322, -0.0867679194, -0.3260966837, -0.3395408094, 0.0516948700, 0.4561953545, -0.0333286040, 0.1862115562, 0.4315688908, -0.0207401793, -0.0954312235, 0.1654602140, -0.3126282990, -0.8529442549, 0.0747407004, -0.0963724852, 0.0241625458, -0.0665531456, 0.3611162007, 0.5511728525, 0.0938309059, 0.1939866096, -0.2989358902, 0.1270841956, -0.0826379955, 0.3503268957, 1.7018544674, -0.3048082888, 0.2036928087, -0.3895592988, 0.0431278944, -0.0104381684, 0.3421257734, 0.1191324592, 0.7284918427, 0.2476484925, -0.3579110503, -0.3907270730, 0.1720739752, 0.1882773042, -0.4147233665, 0.2366351932, 0.3315697312, -0.3471398354, -0.4126466513, -0.1523327082, -0.3302255869, -0.0933902413, 0.2884224951, -0.0004317730, 0.0586849079, 0.0071349782, -0.1499869376, -0.2518581450, -0.2774062455, 0.3256165385, -0.1192507893, -0.0032736736, 0.5831397772, 0.0186595228, -0.1200700402, 0.0177057739, 0.4566135108, 0.1270914972, 0.1132715419, 0.0702718422, 0.3361682296, 0.0451101549, 0.3980439305, 0.5926052332, 0.1272433251, 0.3754379451, -0.2800029218, -0.1096709445, 0.7384734750, -0.3419483900, -0.2832594514, -0.0344445333, 0.7075896263, 0.2765216529, 0.1328931600, -0.1332895160, 0.1805481315, 0.0745761693, -0.0064480263, -0.0027928415, -0.0054205866, -0.1023326367, -0.1798724234, 0.0481183715, 0.0047311387, -0.0084366389, 0.0155659830, 0.1792288423, 0.3195274174, 0.0904832110, 0.0410090871, 0.0202140417, -0.2430836707, 0.1155368537, 0.1759454161, 0.4649551809, 0.1016288027, 0.1917580515, 0.5097556710, -0.1559901386, 0.0344996564, 0.0148348240, 0.1036336198, 0.7092955112, -0.0775584206, -0.4257908165, 0.1012931541, 0.2336495221, 0.3609541655, -0.1283245385, 0.4708747268, 0.4581415057, 0.3639611602, -0.0580972210, -0.3952054679, 0.6529796720, 0.1355038434, 0.4036912620, -0.0269377120, 0.2129219621, -0.2269059569, 0.4005054533, -0.4253324568, 0.1718051434, -0.1723018438, 0.3222495019, -0.3183090687, -0.0576572455, 0.3643524945, -0.3960483074, -0.0380526707, -0.1295483112, 0.1882686466, 0.2610759437, -0.0653729513, 0.1556993276, -0.1501527429, 0.2993337512, -0.3177168071, 0.0091098994, -0.0397973321, 0.3227210045, 0.0763640255, 0.2687169611, 0.1297969967, 0.0952120274, 0.2528800070, -0.2642750144, 0.1089992002, 0.0738704056, -0.0075355498, 0.3489948213, -0.0460484140, -0.1659907699, 0.1369989067, 0.0286916606, 0.1860925406, 0.1150840670, -1.0318193436, -0.2926115394, -0.4500514865, -0.0057902029, -0.2492058873, -0.5404069424, -0.2482735366, 0.4753151536, 0.1932277381, 0.6050626040, 0.2013282031, 0.0577090755, 0.3060367703, -0.0118220067, -0.0442898087, 1.6430214643, -0.4461993277, -0.4306268990, 0.9444859624, 0.2671837211, -0.2158980817, -0.1097081080, 0.5791376233, 0.3198773861, 0.2714783847, -0.2980335653, -1.2425045967, -0.0235392526, 0.9297140837, 0.0631941631, 0.7559086084, 0.0502318107, -0.7891255617, -0.3802983761, 0.3684313893, 0.4369327426, -0.3582074344, -0.6263143420, 0.4353714883, -0.8528283238, -0.0302614421, 0.0001929631, 0.0719289333, -0.7535078526, 0.0835165083, 0.5951576829, -0.7619140148, 0.1273586750, -1.0036154985, -0.1646445394, 0.4220638275, 0.5634156466, 0.2239579260, -0.4151734710, -0.0458195955, -0.2666196525, 0.6479921341, 0.1496692598, -0.2394128442, 0.1863061339, 1.2075091600, 0.0748126134
};

data_t onnx_Conv_362[16] = {
-0.0375017822, 0.1670397222, -0.4725970626, 0.6395727396, 0.7376375198, 0.5624198318, 0.7989858389, 0.1330497265, 0.0441941619, 0.6553912759, -0.2240596265, 0.1453514099, 0.0376863927, 0.5698376298, 1.0710831881, -0.6463657022
};

data_t onnx_Conv_364[16][16][1][1] = {
-0.0636919066, -0.3569679260, 0.0721732154, 0.4095654488, -0.5845657587, 0.0337910317, -0.0029273524, -0.2150857151, -0.1999710947, -0.0943408906, 0.0316156037, -0.9981361032, -0.1060649976, -0.1890673786, -0.7139599323, 0.3454626799, 0.1943669319, 0.0971829817, -0.0210281033, 0.3560410440, 0.2593809366, -0.0419287458, 1.5074585676, 0.3173514903, -0.0427694507, 0.1055675745, 0.0381018110, 0.0121495426, 0.0658048093, 0.1519986391, -0.5928009152, 0.2651758194, -0.5159402490, 0.5035191774, 0.1002877057, -0.0818032175, -0.1302347332, 0.6000071168, 0.2387200147, -0.1169884354, 0.1115532219, -0.2520760596, 1.4512474537, 0.1737541705, -0.6399679184, -0.2633467317, -0.8167221546, 0.3470353186, -0.0684127435, -0.1487573683, 0.0994604304, 0.2491750568, -0.8940942883, -0.0090712626, 0.1431894153, -1.2161248922, 0.1569672823, -0.4954657853, -0.0214190613, 0.7281712890, -0.4204017222, -0.2866145670, -1.6224923134, 1.2011709213, -0.1968958378, -1.0544642210, 0.1519012153, -0.1332511753, 0.5598301291, 0.1430094391, -0.0847175792, 0.5947318673, 0.1182433665, 0.7039369941, 0.2648273110, -0.6046159267, -0.3565219939, 0.1614558250, 0.1940622032, 1.1679412127, -0.1084715873, 0.1267531067, 0.0272393245, 0.0806475058, 0.6982200742, 0.2741418481, 0.1120547876, 0.5197885633, -0.5683436394, 0.2396403253, -0.1403447390, 0.3574143350, -0.6790485978, 0.1453309655, -0.6952477098, 0.7712863088, 0.0489439964, -0.0388858095, 0.2077938616, 0.4406223595, -0.1620566547, -0.2124643475, -0.0978092626, 0.0169988014, 0.7883252501, 0.6467649341, 0.0834937319, -0.3140176535, 0.3626353443, -0.1329303384, -0.3703279197, 0.4972551167, -0.1704612672, -0.2537319362, 0.2424376756, -0.6977829933, 0.2863099873, 0.2185160518, 0.2372523695, 0.0788402930, -0.6939179301, 0.0884846747, 0.0700209439, -0.3151521683, 1.2376968861, -0.2172211856, -0.2753074765, 0.2656340897, 0.0474306606, -0.8983136415, 0.0527600460, 0.1597079486, 0.6483255625, -0.2112645656, -0.2930668294, 1.0639197826, -0.1059688255, 0.2608838379, -0.2266323715, 0.1087886170, 0.0210666601, -0.3455463648, 0.2050266862, -0.3423638046, -0.2718576789, -0.5310337543, 0.0247401576, -0.0715538263, -0.2043306381, -0.1594367921, 0.1321814507, 0.0489697978, -0.0400018692, 0.5020287037, -0.2400002927, 0.3759590983, 0.2456521839, 1.9267662764, -0.1646319628, -0.0525966696, 0.0552040786, -0.9807788730, 0.1399458200, -0.2859058976, 0.7144967914, -0.3347724080, -0.0761283785, 0.6677417755, -0.1447881609, -0.0349814594, -0.0657271966, -1.0831971169, -0.1120800227, -0.3762081861, -0.6327645779, 0.3879257441, 0.1699728817, 0.1019969657, -0.2579572499, -0.0652179345, -0.1299575567, 0.1005477011, -0.5751852393, 0.3830444217, -0.0476904474, -0.1761460155, -0.4028126895, -0.1983934939, -0.0687659830, 0.2633208632, -0.4353587925, 0.2103772759, -0.0155723812, 1.0751733780, 0.2974577844, 1.6102770567, 0.7335364819, 0.3510700762, -0.0195963327, 0.8702719212, -0.3082624674, -0.3833859861, 0.1488002390, -0.3465327024, 0.0347828642, -0.5839277506, -0.2809915841, 0.3451012373, -0.0414573625, 0.6921613216, -0.1853325516, 0.5260657668, 0.2870112658, 0.1906431317, -0.0358740762, 0.1540218741, 0.0519081280, -1.0034174919, -0.0322446749, 0.0773537979, 0.2564569116, 0.0065259906, -0.7072093487, -0.5809940696, 1.3250566721, -0.1521149725, -0.0826518908, 0.2083708495, 0.1941309571, 0.5907559991, 0.2517983913, 0.3032096922, -0.1221696809, 0.1780418903, 0.4450583458, 0.0916211754, -0.1721729785, 0.4397493303, -0.2877874076, 0.2131217867, 0.0438647084, -0.9643255472, -0.0342995189, 0.1704570502, 0.7734500170, 0.0880853906, -0.0104813147, 0.3561035395, 1.0221329927, -0.2109170109, -0.0247648619, 0.5896123648, -0.4182046354, -0.5718442798, -0.8141559958, 0.9727500677
};

data_t onnx_Conv_365[16] = {
0.7336721420, -0.2293896526, -0.1062145829, -0.0795675516, 0.0984169245, -0.0679716617, 0.4428402781, 0.4304125011, -0.5419914722, -1.0637730360, 0.3653037548, 0.7950002551, 0.2320737541, 0.0203127861, -1.1353577375, -0.5912471414
};

data_t onnx_Conv_367[16][16][1][1] = {
0.0030019823, 3.4788520336, 0.1107038632, 0.3434500694, 0.0680714995, -0.1128045619, -0.2866416276, -0.9308785796, 0.5010783672, 0.1062316820, -0.3437887132, -0.7028971910, 0.3111397624, 0.1734263301, 4.2034840584, -1.0990256071, 0.0695643052, 0.0168741047, -0.6287245750, -1.1560821533, 1.4871153831, -3.4140963554, -0.9321537614, -0.9675350189, 0.2819572389, -0.2631357908, 0.2850899696, -0.4317808449, 1.1978765726, 0.3158020377, -0.8236585259, 0.2696465552, -0.7197877765, -0.1253406405, 0.3026124239, -2.7833092213, 0.9673328400, -0.3136150837, -1.0304266214, -0.1248365566, -0.0613842048, 0.8907403946, 0.3191584349, 0.8589115143, -0.1463618726, -1.5025150776, 0.0840563700, 0.1326556653, 0.1797816008, -0.0474316664, -0.5795197487, -1.0100749731, 1.1887160540, -1.0087004900, -2.1179201603, -0.0029773852, 1.6131252050, 0.2394369096, -0.1664974242, 0.4469428360, -0.6623604894, -1.1212691069, 0.3907315433, 1.7495890856, 0.7991094589, -0.4369204640, -0.1653452367, -3.9390795231, -0.5322096348, 0.0275338292, 0.1058005467, 0.9672528505, 0.5944486260, -0.6544152498, 0.0131899808, 1.2151303291, 1.8933265209, -0.2975191474, -2.1230669022, 2.5650165081, 0.3272086382, -2.1003632545, 1.0878866911, 0.3907882869, -0.7186546326, 1.1260693073, -0.5408352017, -0.4316994250, -0.2606002390, 1.6900917292, -0.8743590117, 0.5995506644, 0.1811269522, 0.8597346544, -0.7484920621, 0.2844068408, -0.2994389534, -0.3899202347, -3.4828550816, 0.0624666512, 1.2825574875, -0.3344070613, -1.0723167658, 1.3072755337, -1.3905655146, 0.7159342766, 0.6865928769, -0.9099031091, 0.5563616753, -1.2929593325, 0.4098940790, -0.2254340500, 0.8214672208, 0.1397970170, -0.1416038126, -1.2045904398, 0.7526071072, -1.3202977180, -1.0519809723, -0.7216151953, -0.1900552213, -1.2581883669, -0.3870514929, 0.4451957345, -2.1181306839, 0.1418320984, -0.1257470995, -1.2476962805, 2.5178256035, -0.5551893711, 0.5863608718, 0.0976905897, -0.1567829698, -0.2244392931, -1.0004047155, 0.6001531482, 0.7177094817, -0.0582911409, -0.2347199172, 0.4123699963, 0.8774675131, -0.2697137296, 0.1642653197, 0.2599047720, -1.4362095594, 0.6165778041, 0.6554442644, 0.2181300521, 1.4687393904, -1.1181735992, -0.8660293818, -0.9738507271, -1.0090190172, 0.7277250886, 0.6659840941, 0.0746277869, -1.3726980686, -0.3594365120, 0.7619404793, 0.0242101829, 0.5644632578, -0.1828743964, 0.1367135644, -1.0002197027, 0.5874722600, -0.0279187057, -0.0045271073, -0.5482258797, 0.6646000743, -0.1710736752, 0.5243224502, -2.4462251663, 0.5744652748, 1.0957772732, 2.1484501362, 0.5642738938, 0.6847068667, -0.0654455870, 0.3281738162, -0.6987792850, 0.2518726885, -0.3816001415, 0.3610876799, 1.2301694155, -0.4291564822, -0.0579682142, 2.5647170544, 0.9065819979, 1.3641222715, 0.1096094176, -0.5175916553, -0.9093117118, -0.1021739095, 2.9114360809, 1.4869401455, 0.3485176265, -0.7356302142, -0.7488219738, -0.0853163525, -0.5294082165, 0.5379341841, -1.3252391815, 0.1476804465, 0.8298552036, -0.7476911545, -0.5968232155, 0.5208485723, -0.8862054944, -0.2927917242, 0.1771073937, 1.8906928301, 0.8798058629, -1.0476444960, -2.0653445721, -1.3992687464, -1.9740637541, -0.2987607121, -3.0024781227, 0.5108408332, -1.4883947372, -0.3196006417, 0.5213047266, -0.2079037428, -1.5396254063, -0.4598935246, -0.6697740555, 0.7642112970, 0.1340195835, -0.4716457725, -1.1329015493, -0.6579308510, 0.6360879540, 1.0285505056, 0.9758198857, -0.4055619240, -0.1967633814, -0.4952174425, -1.0786279440, 0.9892634749, 0.2257966101, -0.6892417669, -0.0373960398, 0.7031108737, 0.0044938489, -0.6831499934, 0.1999427974, -0.4044744968, -1.4775023460, -2.4017200470, -0.0150274932, -2.0728120804, -0.8330124617, 0.4194535613, 0.9346247911, -0.0528082512, 2.3587775230
};

data_t onnx_Conv_368[16] = {
0.0422624946, 0.0348163545, 0.0343860835, -1.0371506214, -0.1388078332, -0.3603524566, -0.6703103185, -0.8710800409, -1.2023551464, -0.2111256421, 0.4531378150, -0.6075320244, -0.0483428910, -0.0154389385, -0.4856705666, 0.1517520994
};

data_t onnx_Conv_370[16][16][1][1] = {
0.1348506212, -0.2273656726, 0.8796860576, -0.2100602984, -0.5960474014, -0.2104995698, -1.1100348234, 0.2863007486, 0.3246877491, -0.0950484350, 0.3649053276, 0.1753482819, 1.0810539722, 0.2344948798, 0.6780894399, 0.0382518843, -0.4973936379, 0.3624448478, 1.4614480734, -0.3815114796, 0.0814493522, -0.2742431462, 0.5162330866, -0.9800586700, -0.5362545848, -1.1663624048, 1.6490669250, 0.8522517085, -0.2102837116, 0.1945853680, -0.0799656957, 1.2914035320, 1.5966501236, 0.1407262534, 0.2000654191, 0.5257194042, -0.0442992710, 0.0739512071, -0.4889877141, 2.2708530426, -0.5530088544, -0.0627590418, -1.0674637556, -0.9851416349, -0.0447605141, 0.0693421662, 0.2279908359, -0.6558912992, -0.0502631441, 0.6164629459, 0.0337856822, 0.0883040875, 0.9624653459, -0.0635229871, 0.9050055146, 0.3870584369, -0.5304960608, -0.4354389310, -0.2074238062, 0.0719653219, -0.8500288129, 0.4627407491, -2.1586468220, -0.5728094578, -0.0302455947, -0.0964879841, 0.1472281218, 0.5266969204, -0.0196955167, 0.0887913033, 0.0316334553, -0.0217686296, -0.1209959835, -0.3821204901, 0.3462656438, -0.3196984828, -0.8000012636, -0.1219145879, -0.0988290235, 0.5261606574, 0.2582874298, -0.3928512931, -0.7734220028, -0.0421833843, 0.3698933721, 0.2040786147, -0.2141918987, -0.3480562866, -0.2617588043, 0.1858004630, -0.5919891000, 0.2701536119, 0.2612283826, 0.5969249010, -0.1556030065, 0.0213080589, 0.0630442202, -0.1794207543, 0.3773430884, 0.7372223139, -0.5130324960, 0.7272942066, 0.4268491268, 0.3740140200, -0.5223885179, 1.9070324898, -0.2304303944, -0.0651656315, -0.4295869768, -0.0956940353, -1.7124223709, -0.1908502728, 0.9324877858, -0.0171923079, 0.7339091897, 0.0337786041, 0.2294372767, 0.5311774015, -0.6268686652, -0.7111423612, 0.1620813757, -1.0756617785, 0.6863769293, -0.2977837622, 0.6514400840, 0.9355267286, 0.1642085165, 0.6207236052, -0.1971224248, 0.0564384945, 0.4309368730, -0.1935773939, 0.7923967838, -0.3899662495, -0.4661655426, 0.1164033785, 0.7006978989, 0.4509141445, 0.0586888902, -0.0947224572, 0.2674508691, 0.4003380835, -0.9386853576, -0.4573485553, 0.1007092074, -2.3416221142, 0.3233194053, -0.7071043253, -0.0461747833, 1.1237467527, -0.0182825476, -0.4495079815, -0.7393984795, -0.7052302361, -0.1501618177, 0.0252754092, -1.3475236893, -0.1292812824, 0.2485092878, 0.6273267865, 0.8863172531, 0.3942979276, -0.3378199637, -0.1059852242, -0.4821514785, 1.5125160217, -0.4545927644, 1.1397286654, -0.6015497446, 0.0077310875, 0.5630752444, -2.0649302006, -0.1750556380, -0.1429000050, 0.2582529187, -0.4309652448, 0.5776779652, 0.2190582603, 0.6423741579, 0.0085626245, -0.1383211166, -0.6367593408, 0.7579723001, 0.0461499989, 0.5612568855, -0.2307719886, -0.1703599095, -0.5706794858, -0.2458111644, -0.3824551404, -0.3108293116, 0.6278772950, 0.8880558014, 0.2986149490, -1.4138810635, -0.3828823268, 1.2078908682, -0.4365888834, 0.7040051818, -0.1967766434, 1.1546815634, -1.0884652138, -1.5851899385, -1.1589093208, -0.2162305713, -0.0212493073, 0.0039851624, 0.6273624301, 0.6049186587, -0.2174875736, -0.1559733450, -0.5407008529, 0.0966083035, -0.0860715061, 0.3693071604, 0.1151032224, -0.5760691762, -0.3408606946, -0.4560553730, 0.1336407065, 0.2122900337, 0.3743047714, 0.3596119881, 0.0323015712, 0.2108152807, -0.0868297964, 0.0760024264, 0.2717007995, -0.0349404663, -0.7055092454, -0.1867009699, -0.3518939912, 1.7717244625, 0.0113842981, -0.3712570667, -0.7343232632, 0.2158660144, -0.1195218191, -0.1684230119, 0.8840970397, -0.1967515498, -0.7890941501, 0.6698449850, -1.8407490253, 0.3652831316, 0.2457523346, -0.2524094880, 0.3052625358, 0.2823380530, 0.4775443375, 0.3273552954, -0.4435214698, 0.3957553506, -0.0505967662, -0.0205012728, 0.1765695810
};

data_t onnx_Conv_371[16] = {
1.5370835066, 0.0623192489, 0.2321822643, -0.5316746235, -0.7815990448, -0.7810443044, 0.7859057784, 0.3399515450, 0.9297399521, -2.4826109409, 0.9039073586, 0.6337329745, -1.9604567289, -0.3962237239, 0.3167102635, 0.8761764765
};
